digraph Tree {
node [shape=box] ;
0 [label="X[0] <= 31.5\ngini = 0.5\nsamples = 44979\nvalue = [22483, 22496]"] ;
1 [label="X[0] <= 18.5\ngini = 0.409\nsamples = 22385\nvalue = [6412, 15973]"] ;
0 -> 1 [labeldistance=2.5, labelangle=45, headlabel="True"] ;
2 [label="X[0] <= 14.5\ngini = 0.247\nsamples = 8981\nvalue = [1297, 7684]"] ;
1 -> 2 ;
3 [label="X[1] <= 4091.5\ngini = 0.125\nsamples = 4122\nvalue = [277, 3845]"] ;
2 -> 3 ;
4 [label="X[0] <= 13.5\ngini = 0.11\nsamples = 3665\nvalue = [214, 3451]"] ;
3 -> 4 ;
5 [label="X[1] <= 206.5\ngini = 0.09\nsamples = 2993\nvalue = [142, 2851]"] ;
4 -> 5 ;
6 [label="X[1] <= 192.5\ngini = 0.243\nsamples = 92\nvalue = [13, 79]"] ;
5 -> 6 ;
7 [label="gini = 0.0\nsamples = 74\nvalue = [0, 74]"] ;
6 -> 7 ;
8 [label="X[0] <= 10.5\ngini = 0.401\nsamples = 18\nvalue = [13, 5]"] ;
6 -> 8 ;
9 [label="gini = 0.0\nsamples = 1\nvalue = [0, 1]"] ;
8 -> 9 ;
10 [label="X[0] <= 11.5\ngini = 0.36\nsamples = 17\nvalue = [13, 4]"] ;
8 -> 10 ;
11 [label="X[1] <= 197.0\ngini = 0.278\nsamples = 12\nvalue = [10, 2]"] ;
10 -> 11 ;
12 [label="gini = 0.375\nsamples = 4\nvalue = [3, 1]"] ;
11 -> 12 ;
13 [label="gini = 0.219\nsamples = 8\nvalue = [7, 1]"] ;
11 -> 13 ;
14 [label="X[0] <= 12.5\ngini = 0.48\nsamples = 5\nvalue = [3, 2]"] ;
10 -> 14 ;
15 [label="gini = 0.0\nsamples = 1\nvalue = [0, 1]"] ;
14 -> 15 ;
16 [label="gini = 0.375\nsamples = 4\nvalue = [3, 1]"] ;
14 -> 16 ;
17 [label="X[1] <= 1696.5\ngini = 0.085\nsamples = 2901\nvalue = [129, 2772]"] ;
5 -> 17 ;
18 [label="X[1] <= 1655.0\ngini = 0.111\nsamples = 1183\nvalue = [70, 1113]"] ;
17 -> 18 ;
19 [label="X[0] <= 6.5\ngini = 0.106\nsamples = 1158\nvalue = [65, 1093]"] ;
18 -> 19 ;
20 [label="X[1] <= 1135.5\ngini = 0.278\nsamples = 36\nvalue = [6, 30]"] ;
19 -> 20 ;
21 [label="gini = 0.0\nsamples = 18\nvalue = [0, 18]"] ;
20 -> 21 ;
22 [label="X[1] <= 1383.0\ngini = 0.444\nsamples = 18\nvalue = [6, 12]"] ;
20 -> 22 ;
23 [label="gini = 0.278\nsamples = 6\nvalue = [5, 1]"] ;
22 -> 23 ;
24 [label="X[0] <= 5.5\ngini = 0.153\nsamples = 12\nvalue = [1, 11]"] ;
22 -> 24 ;
25 [label="X[1] <= 1646.5\ngini = 0.278\nsamples = 6\nvalue = [1, 5]"] ;
24 -> 25 ;
26 [label="gini = 0.0\nsamples = 1\nvalue = [1, 0]"] ;
25 -> 26 ;
27 [label="gini = 0.0\nsamples = 5\nvalue = [0, 5]"] ;
25 -> 27 ;
28 [label="gini = 0.0\nsamples = 6\nvalue = [0, 6]"] ;
24 -> 28 ;
29 [label="X[0] <= 8.5\ngini = 0.1\nsamples = 1122\nvalue = [59, 1063]"] ;
19 -> 29 ;
30 [label="X[1] <= 993.5\ngini = 0.015\nsamples = 136\nvalue = [1, 135]"] ;
29 -> 30 ;
31 [label="gini = 0.0\nsamples = 97\nvalue = [0, 97]"] ;
30 -> 31 ;
32 [label="X[1] <= 1004.5\ngini = 0.05\nsamples = 39\nvalue = [1, 38]"] ;
30 -> 32 ;
33 [label="gini = 0.0\nsamples = 1\nvalue = [1, 0]"] ;
32 -> 33 ;
34 [label="gini = 0.0\nsamples = 38\nvalue = [0, 38]"] ;
32 -> 34 ;
35 [label="X[0] <= 9.5\ngini = 0.111\nsamples = 986\nvalue = [58, 928]"] ;
29 -> 35 ;
36 [label="X[1] <= 363.0\ngini = 0.203\nsamples = 122\nvalue = [14, 108]"] ;
35 -> 36 ;
37 [label="X[1] <= 348.5\ngini = 0.49\nsamples = 14\nvalue = [6, 8]"] ;
36 -> 37 ;
38 [label="gini = 0.0\nsamples = 6\nvalue = [0, 6]"] ;
37 -> 38 ;
39 [label="gini = 0.375\nsamples = 8\nvalue = [6, 2]"] ;
37 -> 39 ;
40 [label="X[1] <= 1030.5\ngini = 0.137\nsamples = 108\nvalue = [8, 100]"] ;
36 -> 40 ;
41 [label="X[1] <= 864.5\ngini = 0.265\nsamples = 51\nvalue = [8, 43]"] ;
40 -> 41 ;
42 [label="gini = 0.0\nsamples = 31\nvalue = [0, 31]"] ;
41 -> 42 ;
43 [label="X[1] <= 993.5\ngini = 0.48\nsamples = 20\nvalue = [8, 12]"] ;
41 -> 43 ;
44 [label="X[1] <= 908.5\ngini = 0.43\nsamples = 16\nvalue = [5, 11]"] ;
43 -> 44 ;
45 [label="gini = 0.496\nsamples = 11\nvalue = [5, 6]"] ;
44 -> 45 ;
46 [label="gini = 0.0\nsamples = 5\nvalue = [0, 5]"] ;
44 -> 46 ;
47 [label="gini = 0.375\nsamples = 4\nvalue = [3, 1]"] ;
43 -> 47 ;
48 [label="gini = 0.0\nsamples = 57\nvalue = [0, 57]"] ;
40 -> 48 ;
49 [label="X[0] <= 11.5\ngini = 0.097\nsamples = 864\nvalue = [44, 820]"] ;
35 -> 49 ;
50 [label="X[1] <= 660.0\ngini = 0.059\nsamples = 424\nvalue = [13, 411]"] ;
49 -> 50 ;
51 [label="X[1] <= 658.0\ngini = 0.141\nsamples = 131\nvalue = [10, 121]"] ;
50 -> 51 ;
52 [label="X[1] <= 518.5\ngini = 0.116\nsamples = 129\nvalue = [8, 121]"] ;
51 -> 52 ;
53 [label="X[1] <= 430.0\ngini = 0.057\nsamples = 103\nvalue = [3, 100]"] ;
52 -> 53 ;
54 [label="gini = 0.0\nsamples = 49\nvalue = [0, 49]"] ;
53 -> 54 ;
55 [label="X[1] <= 437.0\ngini = 0.105\nsamples = 54\nvalue = [3, 51]"] ;
53 -> 55 ;
56 [label="gini = 0.355\nsamples = 13\nvalue = [3, 10]"] ;
55 -> 56 ;
57 [label="gini = 0.0\nsamples = 41\nvalue = [0, 41]"] ;
55 -> 57 ;
58 [label="X[1] <= 587.5\ngini = 0.311\nsamples = 26\nvalue = [5, 21]"] ;
52 -> 58 ;
59 [label="X[0] <= 10.5\ngini = 0.444\nsamples = 15\nvalue = [5, 10]"] ;
58 -> 59 ;
60 [label="X[1] <= 525.5\ngini = 0.32\nsamples = 10\nvalue = [2, 8]"] ;
59 -> 60 ;
61 [label="gini = 0.5\nsamples = 4\nvalue = [2, 2]"] ;
60 -> 61 ;
62 [label="gini = 0.0\nsamples = 6\nvalue = [0, 6]"] ;
60 -> 62 ;
63 [label="gini = 0.48\nsamples = 5\nvalue = [3, 2]"] ;
59 -> 63 ;
64 [label="gini = 0.0\nsamples = 11\nvalue = [0, 11]"] ;
58 -> 64 ;
65 [label="gini = 0.0\nsamples = 2\nvalue = [2, 0]"] ;
51 -> 65 ;
66 [label="X[1] <= 1557.0\ngini = 0.02\nsamples = 293\nvalue = [3, 290]"] ;
50 -> 66 ;
67 [label="X[1] <= 992.5\ngini = 0.015\nsamples = 270\nvalue = [2, 268]"] ;
66 -> 67 ;
68 [label="X[1] <= 981.0\ngini = 0.034\nsamples = 114\nvalue = [2, 112]"] ;
67 -> 68 ;
69 [label="gini = 0.0\nsamples = 111\nvalue = [0, 111]"] ;
68 -> 69 ;
70 [label="gini = 0.444\nsamples = 3\nvalue = [2, 1]"] ;
68 -> 70 ;
71 [label="gini = 0.0\nsamples = 156\nvalue = [0, 156]"] ;
67 -> 71 ;
72 [label="X[1] <= 1562.0\ngini = 0.083\nsamples = 23\nvalue = [1, 22]"] ;
66 -> 72 ;
73 [label="gini = 0.0\nsamples = 1\nvalue = [1, 0]"] ;
72 -> 73 ;
74 [label="gini = 0.0\nsamples = 22\nvalue = [0, 22]"] ;
72 -> 74 ;
75 [label="X[1] <= 1419.0\ngini = 0.131\nsamples = 440\nvalue = [31, 409]"] ;
49 -> 75 ;
76 [label="X[1] <= 993.5\ngini = 0.099\nsamples = 362\nvalue = [19, 343]"] ;
75 -> 76 ;
77 [label="X[1] <= 989.5\ngini = 0.127\nsamples = 280\nvalue = [19, 261]"] ;
76 -> 77 ;
78 [label="X[1] <= 786.5\ngini = 0.107\nsamples = 264\nvalue = [15, 249]"] ;
77 -> 78 ;
79 [label="X[1] <= 370.5\ngini = 0.075\nsamples = 180\nvalue = [7, 173]"] ;
78 -> 79 ;
80 [label="X[1] <= 358.5\ngini = 0.175\nsamples = 31\nvalue = [3, 28]"] ;
79 -> 80 ;
81 [label="X[1] <= 350.0\ngini = 0.124\nsamples = 30\nvalue = [2, 28]"] ;
80 -> 81 ;
82 [label="gini = 0.0\nsamples = 20\nvalue = [0, 20]"] ;
81 -> 82 ;
83 [label="X[0] <= 12.5\ngini = 0.32\nsamples = 10\nvalue = [2, 8]"] ;
81 -> 83 ;
84 [label="gini = 0.5\nsamples = 4\nvalue = [2, 2]"] ;
83 -> 84 ;
85 [label="gini = 0.0\nsamples = 6\nvalue = [0, 6]"] ;
83 -> 85 ;
86 [label="gini = 0.0\nsamples = 1\nvalue = [1, 0]"] ;
80 -> 86 ;
87 [label="X[0] <= 12.5\ngini = 0.052\nsamples = 149\nvalue = [4, 145]"] ;
79 -> 87 ;
88 [label="gini = 0.0\nsamples = 76\nvalue = [0, 76]"] ;
87 -> 88 ;
89 [label="X[1] <= 695.0\ngini = 0.104\nsamples = 73\nvalue = [4, 69]"] ;
87 -> 89 ;
90 [label="X[1] <= 528.0\ngini = 0.043\nsamples = 46\nvalue = [1, 45]"] ;
89 -> 90 ;
91 [label="gini = 0.0\nsamples = 24\nvalue = [0, 24]"] ;
90 -> 91 ;
92 [label="X[1] <= 530.5\ngini = 0.087\nsamples = 22\nvalue = [1, 21]"] ;
90 -> 92 ;
93 [label="gini = 0.32\nsamples = 5\nvalue = [1, 4]"] ;
92 -> 93 ;
94 [label="gini = 0.0\nsamples = 17\nvalue = [0, 17]"] ;
92 -> 94 ;
95 [label="X[1] <= 727.0\ngini = 0.198\nsamples = 27\nvalue = [3, 24]"] ;
89 -> 95 ;
96 [label="gini = 0.355\nsamples = 13\nvalue = [3, 10]"] ;
95 -> 96 ;
97 [label="gini = 0.0\nsamples = 14\nvalue = [0, 14]"] ;
95 -> 97 ;
98 [label="X[1] <= 789.5\ngini = 0.172\nsamples = 84\nvalue = [8, 76]"] ;
78 -> 98 ;
99 [label="gini = 0.0\nsamples = 3\nvalue = [3, 0]"] ;
98 -> 99 ;
100 [label="X[1] <= 856.0\ngini = 0.116\nsamples = 81\nvalue = [5, 76]"] ;
98 -> 100 ;
101 [label="X[1] <= 844.5\ngini = 0.287\nsamples = 23\nvalue = [4, 19]"] ;
100 -> 101 ;
102 [label="gini = 0.0\nsamples = 12\nvalue = [0, 12]"] ;
101 -> 102 ;
103 [label="X[1] <= 848.5\ngini = 0.463\nsamples = 11\nvalue = [4, 7]"] ;
101 -> 103 ;
104 [label="gini = 0.444\nsamples = 3\nvalue = [1, 2]"] ;
103 -> 104 ;
105 [label="gini = 0.469\nsamples = 8\nvalue = [3, 5]"] ;
103 -> 105 ;
106 [label="X[1] <= 875.0\ngini = 0.034\nsamples = 58\nvalue = [1, 57]"] ;
100 -> 106 ;
107 [label="X[1] <= 872.5\ngini = 0.091\nsamples = 21\nvalue = [1, 20]"] ;
106 -> 107 ;
108 [label="gini = 0.0\nsamples = 9\nvalue = [0, 9]"] ;
107 -> 108 ;
109 [label="X[0] <= 12.5\ngini = 0.153\nsamples = 12\nvalue = [1, 11]"] ;
107 -> 109 ;
110 [label="gini = 0.0\nsamples = 1\nvalue = [0, 1]"] ;
109 -> 110 ;
111 [label="gini = 0.165\nsamples = 11\nvalue = [1, 10]"] ;
109 -> 111 ;
112 [label="gini = 0.0\nsamples = 37\nvalue = [0, 37]"] ;
106 -> 112 ;
113 [label="X[0] <= 12.5\ngini = 0.375\nsamples = 16\nvalue = [4, 12]"] ;
77 -> 113 ;
114 [label="gini = 0.391\nsamples = 15\nvalue = [4, 11]"] ;
113 -> 114 ;
115 [label="gini = 0.0\nsamples = 1\nvalue = [0, 1]"] ;
113 -> 115 ;
116 [label="gini = 0.0\nsamples = 82\nvalue = [0, 82]"] ;
76 -> 116 ;
117 [label="X[1] <= 1431.5\ngini = 0.26\nsamples = 78\nvalue = [12, 66]"] ;
75 -> 117 ;
118 [label="gini = 0.245\nsamples = 7\nvalue = [6, 1]"] ;
117 -> 118 ;
119 [label="X[0] <= 12.5\ngini = 0.155\nsamples = 71\nvalue = [6, 65]"] ;
117 -> 119 ;
120 [label="X[1] <= 1513.5\ngini = 0.293\nsamples = 28\nvalue = [5, 23]"] ;
119 -> 120 ;
121 [label="gini = 0.0\nsamples = 10\nvalue = [0, 10]"] ;
120 -> 121 ;
122 [label="X[1] <= 1549.5\ngini = 0.401\nsamples = 18\nvalue = [5, 13]"] ;
120 -> 122 ;
123 [label="X[1] <= 1534.0\ngini = 0.494\nsamples = 9\nvalue = [5, 4]"] ;
122 -> 123 ;
124 [label="X[1] <= 1518.5\ngini = 0.32\nsamples = 5\nvalue = [1, 4]"] ;
123 -> 124 ;
125 [label="gini = 0.5\nsamples = 2\nvalue = [1, 1]"] ;
124 -> 125 ;
126 [label="gini = 0.0\nsamples = 3\nvalue = [0, 3]"] ;
124 -> 126 ;
127 [label="gini = 0.0\nsamples = 4\nvalue = [4, 0]"] ;
123 -> 127 ;
128 [label="gini = 0.0\nsamples = 9\nvalue = [0, 9]"] ;
122 -> 128 ;
129 [label="X[1] <= 1614.0\ngini = 0.045\nsamples = 43\nvalue = [1, 42]"] ;
119 -> 129 ;
130 [label="gini = 0.0\nsamples = 30\nvalue = [0, 30]"] ;
129 -> 130 ;
131 [label="X[1] <= 1632.0\ngini = 0.142\nsamples = 13\nvalue = [1, 12]"] ;
129 -> 131 ;
132 [label="gini = 0.0\nsamples = 1\nvalue = [1, 0]"] ;
131 -> 132 ;
133 [label="gini = 0.0\nsamples = 12\nvalue = [0, 12]"] ;
131 -> 133 ;
134 [label="X[0] <= 10.5\ngini = 0.32\nsamples = 25\nvalue = [5, 20]"] ;
18 -> 134 ;
135 [label="X[1] <= 1673.0\ngini = 0.408\nsamples = 7\nvalue = [5, 2]"] ;
134 -> 135 ;
136 [label="gini = 0.0\nsamples = 2\nvalue = [2, 0]"] ;
135 -> 136 ;
137 [label="gini = 0.48\nsamples = 5\nvalue = [3, 2]"] ;
135 -> 137 ;
138 [label="gini = 0.0\nsamples = 18\nvalue = [0, 18]"] ;
134 -> 138 ;
139 [label="X[0] <= 11.5\ngini = 0.066\nsamples = 1718\nvalue = [59, 1659]"] ;
17 -> 139 ;
140 [label="X[1] <= 2263.0\ngini = 0.047\nsamples = 997\nvalue = [24, 973]"] ;
139 -> 140 ;
141 [label="X[0] <= 9.5\ngini = 0.007\nsamples = 284\nvalue = [1, 283]"] ;
140 -> 141 ;
142 [label="X[1] <= 2006.5\ngini = 0.022\nsamples = 92\nvalue = [1, 91]"] ;
141 -> 142 ;
143 [label="gini = 0.0\nsamples = 64\nvalue = [0, 64]"] ;
142 -> 143 ;
144 [label="X[1] <= 2031.0\ngini = 0.069\nsamples = 28\nvalue = [1, 27]"] ;
142 -> 144 ;
145 [label="gini = 0.444\nsamples = 3\nvalue = [1, 2]"] ;
144 -> 145 ;
146 [label="gini = 0.0\nsamples = 25\nvalue = [0, 25]"] ;
144 -> 146 ;
147 [label="gini = 0.0\nsamples = 192\nvalue = [0, 192]"] ;
141 -> 147 ;
148 [label="X[1] <= 2272.5\ngini = 0.062\nsamples = 713\nvalue = [23, 690]"] ;
140 -> 148 ;
149 [label="gini = 0.0\nsamples = 3\nvalue = [3, 0]"] ;
148 -> 149 ;
150 [label="X[1] <= 3062.0\ngini = 0.055\nsamples = 710\nvalue = [20, 690]"] ;
148 -> 150 ;
151 [label="X[1] <= 3055.5\ngini = 0.089\nsamples = 301\nvalue = [14, 287]"] ;
150 -> 151 ;
152 [label="X[1] <= 2718.5\ngini = 0.047\nsamples = 290\nvalue = [7, 283]"] ;
151 -> 152 ;
153 [label="X[1] <= 2704.5\ngini = 0.079\nsamples = 170\nvalue = [7, 163]"] ;
152 -> 153 ;
154 [label="X[0] <= 7.5\ngini = 0.035\nsamples = 166\nvalue = [3, 163]"] ;
153 -> 154 ;
155 [label="X[1] <= 2391.0\ngini = 0.245\nsamples = 7\nvalue = [1, 6]"] ;
154 -> 155 ;
156 [label="gini = 0.0\nsamples = 1\nvalue = [1, 0]"] ;
155 -> 156 ;
157 [label="gini = 0.0\nsamples = 6\nvalue = [0, 6]"] ;
155 -> 157 ;
158 [label="X[1] <= 2522.5\ngini = 0.025\nsamples = 159\nvalue = [2, 157]"] ;
154 -> 158 ;
159 [label="gini = 0.0\nsamples = 87\nvalue = [0, 87]"] ;
158 -> 159 ;
160 [label="X[1] <= 2531.0\ngini = 0.054\nsamples = 72\nvalue = [2, 70]"] ;
158 -> 160 ;
161 [label="gini = 0.0\nsamples = 2\nvalue = [2, 0]"] ;
160 -> 161 ;
162 [label="gini = 0.0\nsamples = 70\nvalue = [0, 70]"] ;
160 -> 162 ;
163 [label="gini = 0.0\nsamples = 4\nvalue = [4, 0]"] ;
153 -> 163 ;
164 [label="gini = 0.0\nsamples = 120\nvalue = [0, 120]"] ;
152 -> 164 ;
165 [label="X[0] <= 10.5\ngini = 0.463\nsamples = 11\nvalue = [7, 4]"] ;
151 -> 165 ;
166 [label="gini = 0.32\nsamples = 5\nvalue = [4, 1]"] ;
165 -> 166 ;
167 [label="gini = 0.5\nsamples = 6\nvalue = [3, 3]"] ;
165 -> 167 ;
168 [label="X[1] <= 3424.0\ngini = 0.029\nsamples = 409\nvalue = [6, 403]"] ;
150 -> 168 ;
169 [label="gini = 0.0\nsamples = 150\nvalue = [0, 150]"] ;
168 -> 169 ;
170 [label="X[1] <= 3432.5\ngini = 0.045\nsamples = 259\nvalue = [6, 253]"] ;
168 -> 170 ;
171 [label="gini = 0.32\nsamples = 5\nvalue = [4, 1]"] ;
170 -> 171 ;
172 [label="X[1] <= 4005.0\ngini = 0.016\nsamples = 254\nvalue = [2, 252]"] ;
170 -> 172 ;
173 [label="gini = 0.0\nsamples = 211\nvalue = [0, 211]"] ;
172 -> 173 ;
174 [label="X[1] <= 4007.5\ngini = 0.089\nsamples = 43\nvalue = [2, 41]"] ;
172 -> 174 ;
175 [label="X[0] <= 9.0\ngini = 0.278\nsamples = 12\nvalue = [2, 10]"] ;
174 -> 175 ;
176 [label="gini = 0.0\nsamples = 5\nvalue = [0, 5]"] ;
175 -> 176 ;
177 [label="gini = 0.408\nsamples = 7\nvalue = [2, 5]"] ;
175 -> 177 ;
178 [label="gini = 0.0\nsamples = 31\nvalue = [0, 31]"] ;
174 -> 178 ;
179 [label="X[1] <= 3592.5\ngini = 0.092\nsamples = 721\nvalue = [35, 686]"] ;
139 -> 179 ;
180 [label="X[1] <= 2955.5\ngini = 0.081\nsamples = 618\nvalue = [26, 592]"] ;
179 -> 180 ;
181 [label="X[1] <= 2938.5\ngini = 0.105\nsamples = 468\nvalue = [26, 442]"] ;
180 -> 181 ;
182 [label="X[1] <= 2164.0\ngini = 0.084\nsamples = 457\nvalue = [20, 437]"] ;
181 -> 182 ;
183 [label="X[1] <= 2157.0\ngini = 0.124\nsamples = 165\nvalue = [11, 154]"] ;
182 -> 183 ;
184 [label="X[1] <= 1959.0\ngini = 0.107\nsamples = 159\nvalue = [9, 150]"] ;
183 -> 184 ;
185 [label="X[0] <= 12.5\ngini = 0.058\nsamples = 101\nvalue = [3, 98]"] ;
184 -> 185 ;
186 [label="gini = 0.0\nsamples = 45\nvalue = [0, 45]"] ;
185 -> 186 ;
187 [label="X[1] <= 1879.5\ngini = 0.101\nsamples = 56\nvalue = [3, 53]"] ;
185 -> 187 ;
188 [label="X[1] <= 1871.5\ngini = 0.17\nsamples = 32\nvalue = [3, 29]"] ;
187 -> 188 ;
189 [label="X[1] <= 1773.0\ngini = 0.071\nsamples = 27\nvalue = [1, 26]"] ;
188 -> 189 ;
190 [label="gini = 0.0\nsamples = 16\nvalue = [0, 16]"] ;
189 -> 190 ;
191 [label="X[1] <= 1805.0\ngini = 0.165\nsamples = 11\nvalue = [1, 10]"] ;
189 -> 191 ;
192 [label="gini = 0.444\nsamples = 3\nvalue = [1, 2]"] ;
191 -> 192 ;
193 [label="gini = 0.0\nsamples = 8\nvalue = [0, 8]"] ;
191 -> 193 ;
194 [label="gini = 0.48\nsamples = 5\nvalue = [2, 3]"] ;
188 -> 194 ;
195 [label="gini = 0.0\nsamples = 24\nvalue = [0, 24]"] ;
187 -> 195 ;
196 [label="X[1] <= 1967.0\ngini = 0.185\nsamples = 58\nvalue = [6, 52]"] ;
184 -> 196 ;
197 [label="gini = 0.0\nsamples = 2\nvalue = [2, 0]"] ;
196 -> 197 ;
198 [label="X[0] <= 12.5\ngini = 0.133\nsamples = 56\nvalue = [4, 52]"] ;
196 -> 198 ;
199 [label="X[1] <= 2075.5\ngini = 0.245\nsamples = 28\nvalue = [4, 24]"] ;
198 -> 199 ;
200 [label="X[1] <= 2062.5\ngini = 0.346\nsamples = 18\nvalue = [4, 14]"] ;
199 -> 200 ;
201 [label="X[1] <= 2005.5\ngini = 0.124\nsamples = 15\nvalue = [1, 14]"] ;
200 -> 201 ;
202 [label="gini = 0.0\nsamples = 6\nvalue = [0, 6]"] ;
201 -> 202 ;
203 [label="X[1] <= 2016.5\ngini = 0.198\nsamples = 9\nvalue = [1, 8]"] ;
201 -> 203 ;
204 [label="gini = 0.444\nsamples = 3\nvalue = [1, 2]"] ;
203 -> 204 ;
205 [label="gini = 0.0\nsamples = 6\nvalue = [0, 6]"] ;
203 -> 205 ;
206 [label="gini = 0.0\nsamples = 3\nvalue = [3, 0]"] ;
200 -> 206 ;
207 [label="gini = 0.0\nsamples = 10\nvalue = [0, 10]"] ;
199 -> 207 ;
208 [label="gini = 0.0\nsamples = 28\nvalue = [0, 28]"] ;
198 -> 208 ;
209 [label="X[0] <= 12.5\ngini = 0.444\nsamples = 6\nvalue = [2, 4]"] ;
183 -> 209 ;
210 [label="gini = 0.48\nsamples = 5\nvalue = [2, 3]"] ;
209 -> 210 ;
211 [label="gini = 0.0\nsamples = 1\nvalue = [0, 1]"] ;
209 -> 211 ;
212 [label="X[1] <= 2488.5\ngini = 0.06\nsamples = 292\nvalue = [9, 283]"] ;
182 -> 212 ;
213 [label="X[1] <= 2236.5\ngini = 0.013\nsamples = 152\nvalue = [1, 151]"] ;
212 -> 213 ;
214 [label="X[1] <= 2231.0\ngini = 0.077\nsamples = 25\nvalue = [1, 24]"] ;
213 -> 214 ;
215 [label="gini = 0.0\nsamples = 17\nvalue = [0, 17]"] ;
214 -> 215 ;
216 [label="X[0] <= 12.5\ngini = 0.219\nsamples = 8\nvalue = [1, 7]"] ;
214 -> 216 ;
217 [label="gini = 0.0\nsamples = 4\nvalue = [0, 4]"] ;
216 -> 217 ;
218 [label="gini = 0.375\nsamples = 4\nvalue = [1, 3]"] ;
216 -> 218 ;
219 [label="gini = 0.0\nsamples = 127\nvalue = [0, 127]"] ;
213 -> 219 ;
220 [label="X[1] <= 2502.5\ngini = 0.108\nsamples = 140\nvalue = [8, 132]"] ;
212 -> 220 ;
221 [label="gini = 0.444\nsamples = 3\nvalue = [2, 1]"] ;
220 -> 221 ;
222 [label="X[1] <= 2531.0\ngini = 0.084\nsamples = 137\nvalue = [6, 131]"] ;
220 -> 222 ;
223 [label="X[1] <= 2523.5\ngini = 0.278\nsamples = 12\nvalue = [2, 10]"] ;
222 -> 223 ;
224 [label="gini = 0.0\nsamples = 10\nvalue = [0, 10]"] ;
223 -> 224 ;
225 [label="gini = 0.0\nsamples = 2\nvalue = [2, 0]"] ;
223 -> 225 ;
226 [label="X[1] <= 2892.5\ngini = 0.062\nsamples = 125\nvalue = [4, 121]"] ;
222 -> 226 ;
227 [label="X[0] <= 12.5\ngini = 0.036\nsamples = 110\nvalue = [2, 108]"] ;
226 -> 227 ;
228 [label="gini = 0.0\nsamples = 58\nvalue = [0, 58]"] ;
227 -> 228 ;
229 [label="X[1] <= 2745.5\ngini = 0.074\nsamples = 52\nvalue = [2, 50]"] ;
227 -> 229 ;
230 [label="gini = 0.0\nsamples = 30\nvalue = [0, 30]"] ;
229 -> 230 ;
231 [label="X[1] <= 2772.5\ngini = 0.165\nsamples = 22\nvalue = [2, 20]"] ;
229 -> 231 ;
232 [label="gini = 0.32\nsamples = 10\nvalue = [2, 8]"] ;
231 -> 232 ;
233 [label="gini = 0.0\nsamples = 12\nvalue = [0, 12]"] ;
231 -> 233 ;
234 [label="X[1] <= 2900.0\ngini = 0.231\nsamples = 15\nvalue = [2, 13]"] ;
226 -> 234 ;
235 [label="gini = 0.5\nsamples = 4\nvalue = [2, 2]"] ;
234 -> 235 ;
236 [label="gini = 0.0\nsamples = 11\nvalue = [0, 11]"] ;
234 -> 236 ;
237 [label="X[0] <= 12.5\ngini = 0.496\nsamples = 11\nvalue = [6, 5]"] ;
181 -> 237 ;
238 [label="gini = 0.0\nsamples = 3\nvalue = [3, 0]"] ;
237 -> 238 ;
239 [label="X[1] <= 2946.0\ngini = 0.469\nsamples = 8\nvalue = [3, 5]"] ;
237 -> 239 ;
240 [label="gini = 0.49\nsamples = 7\nvalue = [3, 4]"] ;
239 -> 240 ;
241 [label="gini = 0.0\nsamples = 1\nvalue = [0, 1]"] ;
239 -> 241 ;
242 [label="gini = 0.0\nsamples = 150\nvalue = [0, 150]"] ;
180 -> 242 ;
243 [label="X[1] <= 3601.5\ngini = 0.159\nsamples = 103\nvalue = [9, 94]"] ;
179 -> 243 ;
244 [label="gini = 0.5\nsamples = 10\nvalue = [5, 5]"] ;
243 -> 244 ;
245 [label="X[1] <= 3773.0\ngini = 0.082\nsamples = 93\nvalue = [4, 89]"] ;
243 -> 245 ;
246 [label="gini = 0.0\nsamples = 34\nvalue = [0, 34]"] ;
245 -> 246 ;
247 [label="X[1] <= 3869.5\ngini = 0.126\nsamples = 59\nvalue = [4, 55]"] ;
245 -> 247 ;
248 [label="X[1] <= 3845.0\ngini = 0.269\nsamples = 25\nvalue = [4, 21]"] ;
247 -> 248 ;
249 [label="X[1] <= 3782.5\ngini = 0.142\nsamples = 13\nvalue = [1, 12]"] ;
248 -> 249 ;
250 [label="X[0] <= 12.5\ngini = 0.375\nsamples = 4\nvalue = [1, 3]"] ;
249 -> 250 ;
251 [label="gini = 0.0\nsamples = 2\nvalue = [0, 2]"] ;
250 -> 251 ;
252 [label="gini = 0.5\nsamples = 2\nvalue = [1, 1]"] ;
250 -> 252 ;
253 [label="gini = 0.0\nsamples = 9\nvalue = [0, 9]"] ;
249 -> 253 ;
254 [label="X[0] <= 12.5\ngini = 0.375\nsamples = 12\nvalue = [3, 9]"] ;
248 -> 254 ;
255 [label="X[1] <= 3853.0\ngini = 0.49\nsamples = 7\nvalue = [3, 4]"] ;
254 -> 255 ;
256 [label="gini = 0.444\nsamples = 6\nvalue = [2, 4]"] ;
255 -> 256 ;
257 [label="gini = 0.0\nsamples = 1\nvalue = [1, 0]"] ;
255 -> 257 ;
258 [label="gini = 0.0\nsamples = 5\nvalue = [0, 5]"] ;
254 -> 258 ;
259 [label="gini = 0.0\nsamples = 34\nvalue = [0, 34]"] ;
247 -> 259 ;
260 [label="X[1] <= 2354.5\ngini = 0.191\nsamples = 672\nvalue = [72, 600]"] ;
4 -> 260 ;
261 [label="X[1] <= 2276.5\ngini = 0.247\nsamples = 430\nvalue = [62, 368]"] ;
260 -> 261 ;
262 [label="X[1] <= 1670.0\ngini = 0.225\nsamples = 403\nvalue = [52, 351]"] ;
261 -> 262 ;
263 [label="X[1] <= 1547.5\ngini = 0.276\nsamples = 266\nvalue = [44, 222]"] ;
262 -> 263 ;
264 [label="X[1] <= 590.5\ngini = 0.229\nsamples = 227\nvalue = [30, 197]"] ;
263 -> 264 ;
265 [label="X[1] <= 583.0\ngini = 0.312\nsamples = 93\nvalue = [18, 75]"] ;
264 -> 265 ;
266 [label="X[1] <= 300.5\ngini = 0.29\nsamples = 91\nvalue = [16, 75]"] ;
265 -> 266 ;
267 [label="X[1] <= 90.5\ngini = 0.149\nsamples = 37\nvalue = [3, 34]"] ;
266 -> 267 ;
268 [label="X[1] <= 84.5\ngini = 0.355\nsamples = 13\nvalue = [3, 10]"] ;
267 -> 268 ;
269 [label="gini = 0.0\nsamples = 7\nvalue = [0, 7]"] ;
268 -> 269 ;
270 [label="gini = 0.5\nsamples = 6\nvalue = [3, 3]"] ;
268 -> 270 ;
271 [label="gini = 0.0\nsamples = 24\nvalue = [0, 24]"] ;
267 -> 271 ;
272 [label="X[1] <= 352.0\ngini = 0.366\nsamples = 54\nvalue = [13, 41]"] ;
266 -> 272 ;
273 [label="X[1] <= 350.0\ngini = 0.5\nsamples = 18\nvalue = [9, 9]"] ;
272 -> 273 ;
274 [label="X[1] <= 329.5\ngini = 0.32\nsamples = 5\nvalue = [1, 4]"] ;
273 -> 274 ;
275 [label="gini = 0.5\nsamples = 2\nvalue = [1, 1]"] ;
274 -> 275 ;
276 [label="gini = 0.0\nsamples = 3\nvalue = [0, 3]"] ;
274 -> 276 ;
277 [label="gini = 0.473\nsamples = 13\nvalue = [8, 5]"] ;
273 -> 277 ;
278 [label="X[1] <= 465.5\ngini = 0.198\nsamples = 36\nvalue = [4, 32]"] ;
272 -> 278 ;
279 [label="gini = 0.0\nsamples = 9\nvalue = [0, 9]"] ;
278 -> 279 ;
280 [label="X[1] <= 481.0\ngini = 0.252\nsamples = 27\nvalue = [4, 23]"] ;
278 -> 280 ;
281 [label="gini = 0.0\nsamples = 1\nvalue = [1, 0]"] ;
280 -> 281 ;
282 [label="X[1] <= 535.0\ngini = 0.204\nsamples = 26\nvalue = [3, 23]"] ;
280 -> 282 ;
283 [label="X[1] <= 525.5\ngini = 0.291\nsamples = 17\nvalue = [3, 14]"] ;
282 -> 283 ;
284 [label="gini = 0.0\nsamples = 4\nvalue = [0, 4]"] ;
283 -> 284 ;
285 [label="gini = 0.355\nsamples = 13\nvalue = [3, 10]"] ;
283 -> 285 ;
286 [label="gini = 0.0\nsamples = 9\nvalue = [0, 9]"] ;
282 -> 286 ;
287 [label="gini = 0.0\nsamples = 2\nvalue = [2, 0]"] ;
265 -> 287 ;
288 [label="X[1] <= 1430.5\ngini = 0.163\nsamples = 134\nvalue = [12, 122]"] ;
264 -> 288 ;
289 [label="X[1] <= 875.0\ngini = 0.132\nsamples = 113\nvalue = [8, 105]"] ;
288 -> 289 ;
290 [label="X[1] <= 872.5\ngini = 0.198\nsamples = 45\nvalue = [5, 40]"] ;
289 -> 290 ;
291 [label="X[1] <= 719.5\ngini = 0.091\nsamples = 42\nvalue = [2, 40]"] ;
290 -> 291 ;
292 [label="X[1] <= 695.0\ngini = 0.198\nsamples = 18\nvalue = [2, 16]"] ;
291 -> 292 ;
293 [label="gini = 0.0\nsamples = 12\nvalue = [0, 12]"] ;
292 -> 293 ;
294 [label="gini = 0.444\nsamples = 6\nvalue = [2, 4]"] ;
292 -> 294 ;
295 [label="gini = 0.0\nsamples = 24\nvalue = [0, 24]"] ;
291 -> 295 ;
296 [label="gini = 0.0\nsamples = 3\nvalue = [3, 0]"] ;
290 -> 296 ;
297 [label="X[1] <= 1149.0\ngini = 0.084\nsamples = 68\nvalue = [3, 65]"] ;
289 -> 297 ;
298 [label="X[1] <= 945.5\ngini = 0.043\nsamples = 45\nvalue = [1, 44]"] ;
297 -> 298 ;
299 [label="X[1] <= 939.0\ngini = 0.124\nsamples = 15\nvalue = [1, 14]"] ;
298 -> 299 ;
300 [label="gini = 0.0\nsamples = 12\nvalue = [0, 12]"] ;
299 -> 300 ;
301 [label="gini = 0.444\nsamples = 3\nvalue = [1, 2]"] ;
299 -> 301 ;
302 [label="gini = 0.0\nsamples = 30\nvalue = [0, 30]"] ;
298 -> 302 ;
303 [label="X[1] <= 1170.5\ngini = 0.159\nsamples = 23\nvalue = [2, 21]"] ;
297 -> 303 ;
304 [label="gini = 0.0\nsamples = 1\nvalue = [1, 0]"] ;
303 -> 304 ;
305 [label="X[1] <= 1302.0\ngini = 0.087\nsamples = 22\nvalue = [1, 21]"] ;
303 -> 305 ;
306 [label="X[1] <= 1284.5\ngini = 0.32\nsamples = 5\nvalue = [1, 4]"] ;
305 -> 306 ;
307 [label="gini = 0.0\nsamples = 4\nvalue = [0, 4]"] ;
306 -> 307 ;
308 [label="gini = 0.0\nsamples = 1\nvalue = [1, 0]"] ;
306 -> 308 ;
309 [label="gini = 0.0\nsamples = 17\nvalue = [0, 17]"] ;
305 -> 309 ;
310 [label="X[1] <= 1432.5\ngini = 0.308\nsamples = 21\nvalue = [4, 17]"] ;
288 -> 310 ;
311 [label="gini = 0.375\nsamples = 4\nvalue = [3, 1]"] ;
310 -> 311 ;
312 [label="X[1] <= 1512.0\ngini = 0.111\nsamples = 17\nvalue = [1, 16]"] ;
310 -> 312 ;
313 [label="gini = 0.0\nsamples = 12\nvalue = [0, 12]"] ;
312 -> 313 ;
314 [label="X[1] <= 1521.5\ngini = 0.32\nsamples = 5\nvalue = [1, 4]"] ;
312 -> 314 ;
315 [label="gini = 0.5\nsamples = 2\nvalue = [1, 1]"] ;
314 -> 315 ;
316 [label="gini = 0.0\nsamples = 3\nvalue = [0, 3]"] ;
314 -> 316 ;
317 [label="X[1] <= 1583.5\ngini = 0.46\nsamples = 39\nvalue = [14, 25]"] ;
263 -> 317 ;
318 [label="X[1] <= 1575.0\ngini = 0.486\nsamples = 12\nvalue = [7, 5]"] ;
317 -> 318 ;
319 [label="gini = 0.5\nsamples = 10\nvalue = [5, 5]"] ;
318 -> 319 ;
320 [label="gini = 0.0\nsamples = 2\nvalue = [2, 0]"] ;
318 -> 320 ;
321 [label="X[1] <= 1653.5\ngini = 0.384\nsamples = 27\nvalue = [7, 20]"] ;
317 -> 321 ;
322 [label="X[1] <= 1616.0\ngini = 0.255\nsamples = 20\nvalue = [3, 17]"] ;
321 -> 322 ;
323 [label="X[1] <= 1601.5\ngini = 0.355\nsamples = 13\nvalue = [3, 10]"] ;
322 -> 323 ;
324 [label="gini = 0.0\nsamples = 6\nvalue = [0, 6]"] ;
323 -> 324 ;
325 [label="gini = 0.49\nsamples = 7\nvalue = [3, 4]"] ;
323 -> 325 ;
326 [label="gini = 0.0\nsamples = 7\nvalue = [0, 7]"] ;
322 -> 326 ;
327 [label="gini = 0.49\nsamples = 7\nvalue = [4, 3]"] ;
321 -> 327 ;
328 [label="X[1] <= 2004.5\ngini = 0.11\nsamples = 137\nvalue = [8, 129]"] ;
262 -> 328 ;
329 [label="gini = 0.0\nsamples = 81\nvalue = [0, 81]"] ;
328 -> 329 ;
330 [label="X[1] <= 2170.0\ngini = 0.245\nsamples = 56\nvalue = [8, 48]"] ;
328 -> 330 ;
331 [label="X[1] <= 2078.0\ngini = 0.444\nsamples = 21\nvalue = [7, 14]"] ;
330 -> 331 ;
332 [label="X[1] <= 2028.5\ngini = 0.26\nsamples = 13\nvalue = [2, 11]"] ;
331 -> 332 ;
333 [label="gini = 0.408\nsamples = 7\nvalue = [2, 5]"] ;
332 -> 333 ;
334 [label="gini = 0.0\nsamples = 6\nvalue = [0, 6]"] ;
332 -> 334 ;
335 [label="X[1] <= 2086.0\ngini = 0.469\nsamples = 8\nvalue = [5, 3]"] ;
331 -> 335 ;
336 [label="gini = 0.0\nsamples = 4\nvalue = [4, 0]"] ;
335 -> 336 ;
337 [label="X[1] <= 2137.0\ngini = 0.375\nsamples = 4\nvalue = [1, 3]"] ;
335 -> 337 ;
338 [label="gini = 0.0\nsamples = 3\nvalue = [0, 3]"] ;
337 -> 338 ;
339 [label="gini = 0.0\nsamples = 1\nvalue = [1, 0]"] ;
337 -> 339 ;
340 [label="X[1] <= 2229.0\ngini = 0.056\nsamples = 35\nvalue = [1, 34]"] ;
330 -> 340 ;
341 [label="X[1] <= 2218.0\ngini = 0.165\nsamples = 11\nvalue = [1, 10]"] ;
340 -> 341 ;
342 [label="gini = 0.0\nsamples = 5\nvalue = [0, 5]"] ;
341 -> 342 ;
343 [label="gini = 0.278\nsamples = 6\nvalue = [1, 5]"] ;
341 -> 343 ;
344 [label="gini = 0.0\nsamples = 24\nvalue = [0, 24]"] ;
340 -> 344 ;
345 [label="X[1] <= 2282.0\ngini = 0.466\nsamples = 27\nvalue = [10, 17]"] ;
261 -> 345 ;
346 [label="gini = 0.42\nsamples = 10\nvalue = [7, 3]"] ;
345 -> 346 ;
347 [label="X[1] <= 2352.0\ngini = 0.291\nsamples = 17\nvalue = [3, 14]"] ;
345 -> 347 ;
348 [label="X[1] <= 2309.0\ngini = 0.18\nsamples = 10\nvalue = [1, 9]"] ;
347 -> 348 ;
349 [label="X[1] <= 2295.5\ngini = 0.375\nsamples = 4\nvalue = [1, 3]"] ;
348 -> 349 ;
350 [label="gini = 0.0\nsamples = 2\nvalue = [0, 2]"] ;
349 -> 350 ;
351 [label="gini = 0.5\nsamples = 2\nvalue = [1, 1]"] ;
349 -> 351 ;
352 [label="gini = 0.0\nsamples = 6\nvalue = [0, 6]"] ;
348 -> 352 ;
353 [label="gini = 0.408\nsamples = 7\nvalue = [2, 5]"] ;
347 -> 353 ;
354 [label="X[1] <= 2811.0\ngini = 0.079\nsamples = 242\nvalue = [10, 232]"] ;
260 -> 354 ;
355 [label="gini = 0.0\nsamples = 63\nvalue = [0, 63]"] ;
354 -> 355 ;
356 [label="X[1] <= 2821.0\ngini = 0.105\nsamples = 179\nvalue = [10, 169]"] ;
354 -> 356 ;
357 [label="gini = 0.0\nsamples = 2\nvalue = [2, 0]"] ;
356 -> 357 ;
358 [label="X[1] <= 2974.5\ngini = 0.086\nsamples = 177\nvalue = [8, 169]"] ;
356 -> 358 ;
359 [label="X[1] <= 2972.5\ngini = 0.161\nsamples = 34\nvalue = [3, 31]"] ;
358 -> 359 ;
360 [label="X[1] <= 2864.0\ngini = 0.064\nsamples = 30\nvalue = [1, 29]"] ;
359 -> 360 ;
361 [label="X[1] <= 2860.5\ngini = 0.1\nsamples = 19\nvalue = [1, 18]"] ;
360 -> 361 ;
362 [label="gini = 0.0\nsamples = 10\nvalue = [0, 10]"] ;
361 -> 362 ;
363 [label="gini = 0.198\nsamples = 9\nvalue = [1, 8]"] ;
361 -> 363 ;
364 [label="gini = 0.0\nsamples = 11\nvalue = [0, 11]"] ;
360 -> 364 ;
365 [label="gini = 0.5\nsamples = 4\nvalue = [2, 2]"] ;
359 -> 365 ;
366 [label="X[1] <= 3728.5\ngini = 0.067\nsamples = 143\nvalue = [5, 138]"] ;
358 -> 366 ;
367 [label="X[1] <= 3472.5\ngini = 0.037\nsamples = 106\nvalue = [2, 104]"] ;
366 -> 367 ;
368 [label="X[1] <= 3453.0\ngini = 0.056\nsamples = 70\nvalue = [2, 68]"] ;
367 -> 368 ;
369 [label="X[1] <= 3147.0\ngini = 0.029\nsamples = 69\nvalue = [1, 68]"] ;
368 -> 369 ;
370 [label="X[1] <= 3145.0\ngini = 0.077\nsamples = 25\nvalue = [1, 24]"] ;
369 -> 370 ;
371 [label="gini = 0.0\nsamples = 12\nvalue = [0, 12]"] ;
370 -> 371 ;
372 [label="gini = 0.142\nsamples = 13\nvalue = [1, 12]"] ;
370 -> 372 ;
373 [label="gini = 0.0\nsamples = 44\nvalue = [0, 44]"] ;
369 -> 373 ;
374 [label="gini = 0.0\nsamples = 1\nvalue = [1, 0]"] ;
368 -> 374 ;
375 [label="gini = 0.0\nsamples = 36\nvalue = [0, 36]"] ;
367 -> 375 ;
376 [label="X[1] <= 3742.0\ngini = 0.149\nsamples = 37\nvalue = [3, 34]"] ;
366 -> 376 ;
377 [label="gini = 0.0\nsamples = 2\nvalue = [2, 0]"] ;
376 -> 377 ;
378 [label="X[1] <= 3913.0\ngini = 0.056\nsamples = 35\nvalue = [1, 34]"] ;
376 -> 378 ;
379 [label="gini = 0.0\nsamples = 19\nvalue = [0, 19]"] ;
378 -> 379 ;
380 [label="X[1] <= 3933.5\ngini = 0.117\nsamples = 16\nvalue = [1, 15]"] ;
378 -> 380 ;
381 [label="gini = 0.5\nsamples = 2\nvalue = [1, 1]"] ;
380 -> 381 ;
382 [label="gini = 0.0\nsamples = 14\nvalue = [0, 14]"] ;
380 -> 382 ;
383 [label="X[1] <= 4094.5\ngini = 0.238\nsamples = 457\nvalue = [63, 394]"] ;
3 -> 383 ;
384 [label="gini = 0.153\nsamples = 12\nvalue = [11, 1]"] ;
383 -> 384 ;
385 [label="X[1] <= 4633.5\ngini = 0.206\nsamples = 445\nvalue = [52, 393]"] ;
383 -> 385 ;
386 [label="X[1] <= 4609.0\ngini = 0.24\nsamples = 373\nvalue = [52, 321]"] ;
385 -> 386 ;
387 [label="X[1] <= 4380.5\ngini = 0.2\nsamples = 354\nvalue = [40, 314]"] ;
386 -> 387 ;
388 [label="X[0] <= 12.5\ngini = 0.113\nsamples = 166\nvalue = [10, 156]"] ;
387 -> 388 ;
389 [label="X[1] <= 4269.5\ngini = 0.039\nsamples = 101\nvalue = [2, 99]"] ;
388 -> 389 ;
390 [label="X[1] <= 4266.5\ngini = 0.087\nsamples = 44\nvalue = [2, 42]"] ;
389 -> 390 ;
391 [label="gini = 0.0\nsamples = 42\nvalue = [0, 42]"] ;
390 -> 391 ;
392 [label="gini = 0.0\nsamples = 2\nvalue = [2, 0]"] ;
390 -> 392 ;
393 [label="gini = 0.0\nsamples = 57\nvalue = [0, 57]"] ;
389 -> 393 ;
394 [label="X[1] <= 4137.0\ngini = 0.216\nsamples = 65\nvalue = [8, 57]"] ;
388 -> 394 ;
395 [label="X[1] <= 4128.5\ngini = 0.444\nsamples = 6\nvalue = [2, 4]"] ;
394 -> 395 ;
396 [label="gini = 0.0\nsamples = 4\nvalue = [0, 4]"] ;
395 -> 396 ;
397 [label="gini = 0.0\nsamples = 2\nvalue = [2, 0]"] ;
395 -> 397 ;
398 [label="X[1] <= 4235.5\ngini = 0.183\nsamples = 59\nvalue = [6, 53]"] ;
394 -> 398 ;
399 [label="X[0] <= 13.5\ngini = 0.062\nsamples = 31\nvalue = [1, 30]"] ;
398 -> 399 ;
400 [label="X[1] <= 4187.0\ngini = 0.133\nsamples = 14\nvalue = [1, 13]"] ;
399 -> 400 ;
401 [label="gini = 0.0\nsamples = 11\nvalue = [0, 11]"] ;
400 -> 401 ;
402 [label="X[1] <= 4207.5\ngini = 0.444\nsamples = 3\nvalue = [1, 2]"] ;
400 -> 402 ;
403 [label="gini = 0.5\nsamples = 2\nvalue = [1, 1]"] ;
402 -> 403 ;
404 [label="gini = 0.0\nsamples = 1\nvalue = [0, 1]"] ;
402 -> 404 ;
405 [label="gini = 0.0\nsamples = 17\nvalue = [0, 17]"] ;
399 -> 405 ;
406 [label="X[1] <= 4257.0\ngini = 0.293\nsamples = 28\nvalue = [5, 23]"] ;
398 -> 406 ;
407 [label="X[0] <= 13.5\ngini = 0.444\nsamples = 9\nvalue = [3, 6]"] ;
406 -> 407 ;
408 [label="gini = 0.5\nsamples = 6\nvalue = [3, 3]"] ;
407 -> 408 ;
409 [label="gini = 0.0\nsamples = 3\nvalue = [0, 3]"] ;
407 -> 409 ;
410 [label="X[1] <= 4291.5\ngini = 0.188\nsamples = 19\nvalue = [2, 17]"] ;
406 -> 410 ;
411 [label="gini = 0.0\nsamples = 9\nvalue = [0, 9]"] ;
410 -> 411 ;
412 [label="X[1] <= 4297.0\ngini = 0.32\nsamples = 10\nvalue = [2, 8]"] ;
410 -> 412 ;
413 [label="gini = 0.444\nsamples = 3\nvalue = [2, 1]"] ;
412 -> 413 ;
414 [label="gini = 0.0\nsamples = 7\nvalue = [0, 7]"] ;
412 -> 414 ;
415 [label="X[1] <= 4394.0\ngini = 0.268\nsamples = 188\nvalue = [30, 158]"] ;
387 -> 415 ;
416 [label="X[1] <= 4384.0\ngini = 0.208\nsamples = 17\nvalue = [15, 2]"] ;
415 -> 416 ;
417 [label="gini = 0.0\nsamples = 5\nvalue = [5, 0]"] ;
416 -> 417 ;
418 [label="X[0] <= 13.0\ngini = 0.278\nsamples = 12\nvalue = [10, 2]"] ;
416 -> 418 ;
419 [label="gini = 0.0\nsamples = 1\nvalue = [0, 1]"] ;
418 -> 419 ;
420 [label="gini = 0.165\nsamples = 11\nvalue = [10, 1]"] ;
418 -> 420 ;
421 [label="X[0] <= 9.5\ngini = 0.16\nsamples = 171\nvalue = [15, 156]"] ;
415 -> 421 ;
422 [label="X[1] <= 4540.5\ngini = 0.48\nsamples = 15\nvalue = [9, 6]"] ;
421 -> 422 ;
423 [label="X[0] <= 8.5\ngini = 0.278\nsamples = 6\nvalue = [1, 5]"] ;
422 -> 423 ;
424 [label="gini = 0.0\nsamples = 3\nvalue = [0, 3]"] ;
423 -> 424 ;
425 [label="X[1] <= 4493.0\ngini = 0.444\nsamples = 3\nvalue = [1, 2]"] ;
423 -> 425 ;
426 [label="gini = 0.0\nsamples = 1\nvalue = [0, 1]"] ;
425 -> 426 ;
427 [label="gini = 0.5\nsamples = 2\nvalue = [1, 1]"] ;
425 -> 427 ;
428 [label="X[1] <= 4590.5\ngini = 0.198\nsamples = 9\nvalue = [8, 1]"] ;
422 -> 428 ;
429 [label="gini = 0.0\nsamples = 8\nvalue = [8, 0]"] ;
428 -> 429 ;
430 [label="gini = 0.0\nsamples = 1\nvalue = [0, 1]"] ;
428 -> 430 ;
431 [label="X[0] <= 10.5\ngini = 0.074\nsamples = 156\nvalue = [6, 150]"] ;
421 -> 431 ;
432 [label="X[1] <= 4534.0\ngini = 0.291\nsamples = 17\nvalue = [3, 14]"] ;
431 -> 432 ;
433 [label="gini = 0.0\nsamples = 4\nvalue = [0, 4]"] ;
432 -> 433 ;
434 [label="X[1] <= 4559.5\ngini = 0.355\nsamples = 13\nvalue = [3, 10]"] ;
432 -> 434 ;
435 [label="gini = 0.42\nsamples = 10\nvalue = [3, 7]"] ;
434 -> 435 ;
436 [label="gini = 0.0\nsamples = 3\nvalue = [0, 3]"] ;
434 -> 436 ;
437 [label="X[1] <= 4483.5\ngini = 0.042\nsamples = 139\nvalue = [3, 136]"] ;
431 -> 437 ;
438 [label="X[1] <= 4475.0\ngini = 0.137\nsamples = 27\nvalue = [2, 25]"] ;
437 -> 438 ;
439 [label="gini = 0.0\nsamples = 18\nvalue = [0, 18]"] ;
438 -> 439 ;
440 [label="X[0] <= 13.5\ngini = 0.346\nsamples = 9\nvalue = [2, 7]"] ;
438 -> 440 ;
441 [label="gini = 0.0\nsamples = 3\nvalue = [0, 3]"] ;
440 -> 441 ;
442 [label="gini = 0.444\nsamples = 6\nvalue = [2, 4]"] ;
440 -> 442 ;
443 [label="X[0] <= 12.5\ngini = 0.018\nsamples = 112\nvalue = [1, 111]"] ;
437 -> 443 ;
444 [label="X[0] <= 11.5\ngini = 0.038\nsamples = 52\nvalue = [1, 51]"] ;
443 -> 444 ;
445 [label="gini = 0.0\nsamples = 21\nvalue = [0, 21]"] ;
444 -> 445 ;
446 [label="X[1] <= 4540.5\ngini = 0.062\nsamples = 31\nvalue = [1, 30]"] ;
444 -> 446 ;
447 [label="gini = 0.0\nsamples = 12\nvalue = [0, 12]"] ;
446 -> 447 ;
448 [label="X[1] <= 4550.5\ngini = 0.1\nsamples = 19\nvalue = [1, 18]"] ;
446 -> 448 ;
449 [label="gini = 0.153\nsamples = 12\nvalue = [1, 11]"] ;
448 -> 449 ;
450 [label="gini = 0.0\nsamples = 7\nvalue = [0, 7]"] ;
448 -> 450 ;
451 [label="gini = 0.0\nsamples = 60\nvalue = [0, 60]"] ;
443 -> 451 ;
452 [label="X[0] <= 11.0\ngini = 0.465\nsamples = 19\nvalue = [12, 7]"] ;
386 -> 452 ;
453 [label="gini = 0.0\nsamples = 2\nvalue = [0, 2]"] ;
452 -> 453 ;
454 [label="X[1] <= 4628.5\ngini = 0.415\nsamples = 17\nvalue = [12, 5]"] ;
452 -> 454 ;
455 [label="X[0] <= 13.0\ngini = 0.459\nsamples = 14\nvalue = [9, 5]"] ;
454 -> 455 ;
456 [label="X[1] <= 4618.0\ngini = 0.375\nsamples = 12\nvalue = [9, 3]"] ;
455 -> 456 ;
457 [label="gini = 0.245\nsamples = 7\nvalue = [6, 1]"] ;
456 -> 457 ;
458 [label="gini = 0.48\nsamples = 5\nvalue = [3, 2]"] ;
456 -> 458 ;
459 [label="gini = 0.0\nsamples = 2\nvalue = [0, 2]"] ;
455 -> 459 ;
460 [label="gini = 0.0\nsamples = 3\nvalue = [3, 0]"] ;
454 -> 460 ;
461 [label="gini = 0.0\nsamples = 72\nvalue = [0, 72]"] ;
385 -> 461 ;
462 [label="X[0] <= 15.5\ngini = 0.332\nsamples = 4859\nvalue = [1020, 3839]"] ;
2 -> 462 ;
463 [label="X[1] <= 554.0\ngini = 0.262\nsamples = 1382\nvalue = [214, 1168]"] ;
462 -> 463 ;
464 [label="X[1] <= 188.5\ngini = 0.425\nsamples = 170\nvalue = [52, 118]"] ;
463 -> 464 ;
465 [label="X[1] <= 59.5\ngini = 0.245\nsamples = 49\nvalue = [7, 42]"] ;
464 -> 465 ;
466 [label="X[1] <= 35.5\ngini = 0.48\nsamples = 15\nvalue = [6, 9]"] ;
465 -> 466 ;
467 [label="gini = 0.0\nsamples = 4\nvalue = [0, 4]"] ;
466 -> 467 ;
468 [label="X[1] <= 52.5\ngini = 0.496\nsamples = 11\nvalue = [6, 5]"] ;
466 -> 468 ;
469 [label="X[1] <= 46.0\ngini = 0.494\nsamples = 9\nvalue = [4, 5]"] ;
468 -> 469 ;
470 [label="gini = 0.48\nsamples = 5\nvalue = [3, 2]"] ;
469 -> 470 ;
471 [label="gini = 0.375\nsamples = 4\nvalue = [1, 3]"] ;
469 -> 471 ;
472 [label="gini = 0.0\nsamples = 2\nvalue = [2, 0]"] ;
468 -> 472 ;
473 [label="X[1] <= 151.0\ngini = 0.057\nsamples = 34\nvalue = [1, 33]"] ;
465 -> 473 ;
474 [label="gini = 0.0\nsamples = 26\nvalue = [0, 26]"] ;
473 -> 474 ;
475 [label="X[1] <= 178.0\ngini = 0.219\nsamples = 8\nvalue = [1, 7]"] ;
473 -> 475 ;
476 [label="gini = 0.245\nsamples = 7\nvalue = [1, 6]"] ;
475 -> 476 ;
477 [label="gini = 0.0\nsamples = 1\nvalue = [0, 1]"] ;
475 -> 477 ;
478 [label="X[1] <= 334.0\ngini = 0.467\nsamples = 121\nvalue = [45, 76]"] ;
464 -> 478 ;
479 [label="X[1] <= 303.5\ngini = 0.497\nsamples = 39\nvalue = [21, 18]"] ;
478 -> 479 ;
480 [label="X[1] <= 212.5\ngini = 0.444\nsamples = 24\nvalue = [8, 16]"] ;
479 -> 480 ;
481 [label="X[1] <= 206.5\ngini = 0.498\nsamples = 17\nvalue = [8, 9]"] ;
480 -> 481 ;
482 [label="X[1] <= 197.5\ngini = 0.473\nsamples = 13\nvalue = [5, 8]"] ;
481 -> 482 ;
483 [label="gini = 0.5\nsamples = 6\nvalue = [3, 3]"] ;
482 -> 483 ;
484 [label="X[1] <= 202.0\ngini = 0.408\nsamples = 7\nvalue = [2, 5]"] ;
482 -> 484 ;
485 [label="gini = 0.0\nsamples = 3\nvalue = [0, 3]"] ;
484 -> 485 ;
486 [label="gini = 0.5\nsamples = 4\nvalue = [2, 2]"] ;
484 -> 486 ;
487 [label="gini = 0.375\nsamples = 4\nvalue = [3, 1]"] ;
481 -> 487 ;
488 [label="gini = 0.0\nsamples = 7\nvalue = [0, 7]"] ;
480 -> 488 ;
489 [label="X[1] <= 317.0\ngini = 0.231\nsamples = 15\nvalue = [13, 2]"] ;
479 -> 489 ;
490 [label="gini = 0.32\nsamples = 5\nvalue = [4, 1]"] ;
489 -> 490 ;
491 [label="gini = 0.18\nsamples = 10\nvalue = [9, 1]"] ;
489 -> 491 ;
492 [label="X[1] <= 353.5\ngini = 0.414\nsamples = 82\nvalue = [24, 58]"] ;
478 -> 492 ;
493 [label="gini = 0.0\nsamples = 8\nvalue = [0, 8]"] ;
492 -> 493 ;
494 [label="X[1] <= 364.5\ngini = 0.438\nsamples = 74\nvalue = [24, 50]"] ;
492 -> 494 ;
495 [label="gini = 0.0\nsamples = 3\nvalue = [3, 0]"] ;
494 -> 495 ;
496 [label="X[1] <= 415.0\ngini = 0.417\nsamples = 71\nvalue = [21, 50]"] ;
494 -> 496 ;
497 [label="gini = 0.0\nsamples = 9\nvalue = [0, 9]"] ;
496 -> 497 ;
498 [label="X[1] <= 421.5\ngini = 0.448\nsamples = 62\nvalue = [21, 41]"] ;
496 -> 498 ;
499 [label="X[1] <= 420.0\ngini = 0.278\nsamples = 6\nvalue = [5, 1]"] ;
498 -> 499 ;
500 [label="gini = 0.444\nsamples = 3\nvalue = [2, 1]"] ;
499 -> 500 ;
501 [label="gini = 0.0\nsamples = 3\nvalue = [3, 0]"] ;
499 -> 501 ;
502 [label="X[1] <= 442.0\ngini = 0.408\nsamples = 56\nvalue = [16, 40]"] ;
498 -> 502 ;
503 [label="gini = 0.0\nsamples = 10\nvalue = [0, 10]"] ;
502 -> 503 ;
504 [label="X[1] <= 461.5\ngini = 0.454\nsamples = 46\nvalue = [16, 30]"] ;
502 -> 504 ;
505 [label="X[1] <= 451.5\ngini = 0.444\nsamples = 12\nvalue = [8, 4]"] ;
504 -> 505 ;
506 [label="X[1] <= 449.5\ngini = 0.5\nsamples = 6\nvalue = [3, 3]"] ;
505 -> 506 ;
507 [label="gini = 0.375\nsamples = 4\nvalue = [3, 1]"] ;
506 -> 507 ;
508 [label="gini = 0.0\nsamples = 2\nvalue = [0, 2]"] ;
506 -> 508 ;
509 [label="gini = 0.278\nsamples = 6\nvalue = [5, 1]"] ;
505 -> 509 ;
510 [label="X[1] <= 541.5\ngini = 0.36\nsamples = 34\nvalue = [8, 26]"] ;
504 -> 510 ;
511 [label="X[1] <= 516.5\ngini = 0.211\nsamples = 25\nvalue = [3, 22]"] ;
510 -> 511 ;
512 [label="gini = 0.0\nsamples = 4\nvalue = [0, 4]"] ;
511 -> 512 ;
513 [label="X[1] <= 528.0\ngini = 0.245\nsamples = 21\nvalue = [3, 18]"] ;
511 -> 513 ;
514 [label="gini = 0.219\nsamples = 8\nvalue = [1, 7]"] ;
513 -> 514 ;
515 [label="gini = 0.26\nsamples = 13\nvalue = [2, 11]"] ;
513 -> 515 ;
516 [label="gini = 0.494\nsamples = 9\nvalue = [5, 4]"] ;
510 -> 516 ;
517 [label="X[1] <= 2408.0\ngini = 0.232\nsamples = 1212\nvalue = [162, 1050]"] ;
463 -> 517 ;
518 [label="X[1] <= 2396.5\ngini = 0.264\nsamples = 645\nvalue = [101, 544]"] ;
517 -> 518 ;
519 [label="X[1] <= 2016.0\ngini = 0.257\nsamples = 641\nvalue = [97, 544]"] ;
518 -> 519 ;
520 [label="X[1] <= 1164.5\ngini = 0.21\nsamples = 486\nvalue = [58, 428]"] ;
519 -> 520 ;
521 [label="X[1] <= 1158.0\ngini = 0.272\nsamples = 271\nvalue = [44, 227]"] ;
520 -> 521 ;
522 [label="X[1] <= 691.5\ngini = 0.252\nsamples = 264\nvalue = [39, 225]"] ;
521 -> 522 ;
523 [label="X[1] <= 555.5\ngini = 0.038\nsamples = 52\nvalue = [1, 51]"] ;
522 -> 523 ;
524 [label="gini = 0.219\nsamples = 8\nvalue = [1, 7]"] ;
523 -> 524 ;
525 [label="gini = 0.0\nsamples = 44\nvalue = [0, 44]"] ;
523 -> 525 ;
526 [label="X[1] <= 874.5\ngini = 0.294\nsamples = 212\nvalue = [38, 174]"] ;
522 -> 526 ;
527 [label="X[1] <= 872.5\ngini = 0.384\nsamples = 108\nvalue = [28, 80]"] ;
526 -> 527 ;
528 [label="X[1] <= 787.5\ngini = 0.278\nsamples = 90\nvalue = [15, 75]"] ;
527 -> 528 ;
529 [label="X[1] <= 784.5\ngini = 0.39\nsamples = 49\nvalue = [13, 36]"] ;
528 -> 529 ;
530 [label="X[1] <= 753.0\ngini = 0.234\nsamples = 37\nvalue = [5, 32]"] ;
529 -> 530 ;
531 [label="X[1] <= 746.5\ngini = 0.285\nsamples = 29\nvalue = [5, 24]"] ;
530 -> 531 ;
532 [label="X[1] <= 708.5\ngini = 0.245\nsamples = 28\nvalue = [4, 24]"] ;
531 -> 532 ;
533 [label="X[1] <= 704.5\ngini = 0.32\nsamples = 20\nvalue = [4, 16]"] ;
532 -> 533 ;
534 [label="X[1] <= 698.0\ngini = 0.231\nsamples = 15\nvalue = [2, 13]"] ;
533 -> 534 ;
535 [label="gini = 0.26\nsamples = 13\nvalue = [2, 11]"] ;
534 -> 535 ;
536 [label="gini = 0.0\nsamples = 2\nvalue = [0, 2]"] ;
534 -> 536 ;
537 [label="gini = 0.48\nsamples = 5\nvalue = [2, 3]"] ;
533 -> 537 ;
538 [label="gini = 0.0\nsamples = 8\nvalue = [0, 8]"] ;
532 -> 538 ;
539 [label="gini = 0.0\nsamples = 1\nvalue = [1, 0]"] ;
531 -> 539 ;
540 [label="gini = 0.0\nsamples = 8\nvalue = [0, 8]"] ;
530 -> 540 ;
541 [label="X[1] <= 785.5\ngini = 0.444\nsamples = 12\nvalue = [8, 4]"] ;
529 -> 541 ;
542 [label="gini = 0.278\nsamples = 6\nvalue = [5, 1]"] ;
541 -> 542 ;
543 [label="X[1] <= 786.5\ngini = 0.5\nsamples = 6\nvalue = [3, 3]"] ;
541 -> 543 ;
544 [label="gini = 0.0\nsamples = 2\nvalue = [0, 2]"] ;
543 -> 544 ;
545 [label="gini = 0.375\nsamples = 4\nvalue = [3, 1]"] ;
543 -> 545 ;
546 [label="X[1] <= 857.0\ngini = 0.093\nsamples = 41\nvalue = [2, 39]"] ;
528 -> 546 ;
547 [label="X[1] <= 848.5\ngini = 0.18\nsamples = 20\nvalue = [2, 18]"] ;
546 -> 547 ;
548 [label="gini = 0.0\nsamples = 13\nvalue = [0, 13]"] ;
547 -> 548 ;
549 [label="gini = 0.408\nsamples = 7\nvalue = [2, 5]"] ;
547 -> 549 ;
550 [label="gini = 0.0\nsamples = 21\nvalue = [0, 21]"] ;
546 -> 550 ;
551 [label="gini = 0.401\nsamples = 18\nvalue = [13, 5]"] ;
527 -> 551 ;
552 [label="X[1] <= 977.5\ngini = 0.174\nsamples = 104\nvalue = [10, 94]"] ;
526 -> 552 ;
553 [label="gini = 0.0\nsamples = 35\nvalue = [0, 35]"] ;
552 -> 553 ;
554 [label="X[1] <= 1019.5\ngini = 0.248\nsamples = 69\nvalue = [10, 59]"] ;
552 -> 554 ;
555 [label="X[1] <= 1007.5\ngini = 0.351\nsamples = 44\nvalue = [10, 34]"] ;
554 -> 555 ;
556 [label="X[1] <= 998.0\ngini = 0.308\nsamples = 42\nvalue = [8, 34]"] ;
555 -> 556 ;
557 [label="X[1] <= 993.5\ngini = 0.198\nsamples = 27\nvalue = [3, 24]"] ;
556 -> 557 ;
558 [label="gini = 0.219\nsamples = 24\nvalue = [3, 21]"] ;
557 -> 558 ;
559 [label="gini = 0.0\nsamples = 3\nvalue = [0, 3]"] ;
557 -> 559 ;
560 [label="gini = 0.444\nsamples = 15\nvalue = [5, 10]"] ;
556 -> 560 ;
561 [label="gini = 0.0\nsamples = 2\nvalue = [2, 0]"] ;
555 -> 561 ;
562 [label="gini = 0.0\nsamples = 25\nvalue = [0, 25]"] ;
554 -> 562 ;
563 [label="gini = 0.408\nsamples = 7\nvalue = [5, 2]"] ;
521 -> 563 ;
564 [label="X[1] <= 1829.5\ngini = 0.122\nsamples = 215\nvalue = [14, 201]"] ;
520 -> 564 ;
565 [label="X[1] <= 1822.0\ngini = 0.142\nsamples = 182\nvalue = [14, 168]"] ;
564 -> 565 ;
566 [label="X[1] <= 1731.5\ngini = 0.125\nsamples = 179\nvalue = [12, 167]"] ;
565 -> 566 ;
567 [label="X[1] <= 1578.0\ngini = 0.107\nsamples = 159\nvalue = [9, 150]"] ;
566 -> 567 ;
568 [label="X[1] <= 1570.5\ngini = 0.14\nsamples = 119\nvalue = [9, 110]"] ;
567 -> 568 ;
569 [label="X[1] <= 1266.5\ngini = 0.113\nsamples = 116\nvalue = [7, 109]"] ;
568 -> 569 ;
570 [label="gini = 0.0\nsamples = 22\nvalue = [0, 22]"] ;
569 -> 570 ;
571 [label="X[1] <= 1273.0\ngini = 0.138\nsamples = 94\nvalue = [7, 87]"] ;
569 -> 571 ;
572 [label="gini = 0.48\nsamples = 5\nvalue = [2, 3]"] ;
571 -> 572 ;
573 [label="X[1] <= 1518.5\ngini = 0.106\nsamples = 89\nvalue = [5, 84]"] ;
571 -> 573 ;
574 [label="X[1] <= 1516.5\ngini = 0.128\nsamples = 73\nvalue = [5, 68]"] ;
573 -> 574 ;
575 [label="X[1] <= 1419.0\ngini = 0.086\nsamples = 67\nvalue = [3, 64]"] ;
574 -> 575 ;
576 [label="X[1] <= 1413.0\ngini = 0.139\nsamples = 40\nvalue = [3, 37]"] ;
575 -> 576 ;
577 [label="X[1] <= 1345.5\ngini = 0.097\nsamples = 39\nvalue = [2, 37]"] ;
576 -> 577 ;
578 [label="X[1] <= 1298.5\ngini = 0.067\nsamples = 29\nvalue = [1, 28]"] ;
577 -> 578 ;
579 [label="X[1] <= 1290.5\ngini = 0.095\nsamples = 20\nvalue = [1, 19]"] ;
578 -> 579 ;
580 [label="gini = 0.0\nsamples = 7\nvalue = [0, 7]"] ;
579 -> 580 ;
581 [label="gini = 0.142\nsamples = 13\nvalue = [1, 12]"] ;
579 -> 581 ;
582 [label="gini = 0.0\nsamples = 9\nvalue = [0, 9]"] ;
578 -> 582 ;
583 [label="X[1] <= 1359.0\ngini = 0.18\nsamples = 10\nvalue = [1, 9]"] ;
577 -> 583 ;
584 [label="gini = 0.0\nsamples = 1\nvalue = [1, 0]"] ;
583 -> 584 ;
585 [label="gini = 0.0\nsamples = 9\nvalue = [0, 9]"] ;
583 -> 585 ;
586 [label="gini = 0.0\nsamples = 1\nvalue = [1, 0]"] ;
576 -> 586 ;
587 [label="gini = 0.0\nsamples = 27\nvalue = [0, 27]"] ;
575 -> 587 ;
588 [label="gini = 0.444\nsamples = 6\nvalue = [2, 4]"] ;
574 -> 588 ;
589 [label="gini = 0.0\nsamples = 16\nvalue = [0, 16]"] ;
573 -> 589 ;
590 [label="gini = 0.444\nsamples = 3\nvalue = [2, 1]"] ;
568 -> 590 ;
591 [label="gini = 0.0\nsamples = 40\nvalue = [0, 40]"] ;
567 -> 591 ;
592 [label="X[1] <= 1743.0\ngini = 0.255\nsamples = 20\nvalue = [3, 17]"] ;
566 -> 592 ;
593 [label="X[1] <= 1734.5\ngini = 0.48\nsamples = 5\nvalue = [3, 2]"] ;
592 -> 593 ;
594 [label="X[1] <= 1733.5\ngini = 0.5\nsamples = 4\nvalue = [2, 2]"] ;
593 -> 594 ;
595 [label="gini = 0.444\nsamples = 3\nvalue = [2, 1]"] ;
594 -> 595 ;
596 [label="gini = 0.0\nsamples = 1\nvalue = [0, 1]"] ;
594 -> 596 ;
597 [label="gini = 0.0\nsamples = 1\nvalue = [1, 0]"] ;
593 -> 597 ;
598 [label="gini = 0.0\nsamples = 15\nvalue = [0, 15]"] ;
592 -> 598 ;
599 [label="gini = 0.444\nsamples = 3\nvalue = [2, 1]"] ;
565 -> 599 ;
600 [label="gini = 0.0\nsamples = 33\nvalue = [0, 33]"] ;
564 -> 600 ;
601 [label="X[1] <= 2313.5\ngini = 0.377\nsamples = 155\nvalue = [39, 116]"] ;
519 -> 601 ;
602 [label="X[1] <= 2301.0\ngini = 0.422\nsamples = 129\nvalue = [39, 90]"] ;
601 -> 602 ;
603 [label="X[1] <= 2073.0\ngini = 0.357\nsamples = 116\nvalue = [27, 89]"] ;
602 -> 603 ;
604 [label="X[1] <= 2061.5\ngini = 0.498\nsamples = 17\nvalue = [9, 8]"] ;
603 -> 604 ;
605 [label="X[1] <= 2027.0\ngini = 0.444\nsamples = 9\nvalue = [3, 6]"] ;
604 -> 605 ;
606 [label="gini = 0.444\nsamples = 3\nvalue = [2, 1]"] ;
605 -> 606 ;
607 [label="X[1] <= 2048.5\ngini = 0.278\nsamples = 6\nvalue = [1, 5]"] ;
605 -> 607 ;
608 [label="gini = 0.0\nsamples = 2\nvalue = [0, 2]"] ;
607 -> 608 ;
609 [label="X[1] <= 2052.5\ngini = 0.375\nsamples = 4\nvalue = [1, 3]"] ;
607 -> 609 ;
610 [label="gini = 0.5\nsamples = 2\nvalue = [1, 1]"] ;
609 -> 610 ;
611 [label="gini = 0.0\nsamples = 2\nvalue = [0, 2]"] ;
609 -> 611 ;
612 [label="X[1] <= 2068.5\ngini = 0.375\nsamples = 8\nvalue = [6, 2]"] ;
604 -> 612 ;
613 [label="gini = 0.32\nsamples = 5\nvalue = [4, 1]"] ;
612 -> 613 ;
614 [label="gini = 0.444\nsamples = 3\nvalue = [2, 1]"] ;
612 -> 614 ;
615 [label="X[1] <= 2147.0\ngini = 0.298\nsamples = 99\nvalue = [18, 81]"] ;
603 -> 615 ;
616 [label="gini = 0.0\nsamples = 22\nvalue = [0, 22]"] ;
615 -> 616 ;
617 [label="X[1] <= 2260.0\ngini = 0.358\nsamples = 77\nvalue = [18, 59]"] ;
615 -> 617 ;
618 [label="X[1] <= 2254.5\ngini = 0.417\nsamples = 54\nvalue = [16, 38]"] ;
617 -> 618 ;
619 [label="X[1] <= 2215.5\ngini = 0.38\nsamples = 51\nvalue = [13, 38]"] ;
618 -> 619 ;
620 [label="X[1] <= 2164.0\ngini = 0.266\nsamples = 19\nvalue = [3, 16]"] ;
619 -> 620 ;
621 [label="gini = 0.469\nsamples = 8\nvalue = [3, 5]"] ;
620 -> 621 ;
622 [label="gini = 0.0\nsamples = 11\nvalue = [0, 11]"] ;
620 -> 622 ;
623 [label="X[1] <= 2231.0\ngini = 0.43\nsamples = 32\nvalue = [10, 22]"] ;
619 -> 623 ;
624 [label="gini = 0.469\nsamples = 8\nvalue = [5, 3]"] ;
623 -> 624 ;
625 [label="X[1] <= 2243.0\ngini = 0.33\nsamples = 24\nvalue = [5, 19]"] ;
623 -> 625 ;
626 [label="X[1] <= 2241.5\ngini = 0.363\nsamples = 21\nvalue = [5, 16]"] ;
625 -> 626 ;
627 [label="X[1] <= 2236.5\ngini = 0.278\nsamples = 18\nvalue = [3, 15]"] ;
626 -> 627 ;
628 [label="gini = 0.32\nsamples = 15\nvalue = [3, 12]"] ;
627 -> 628 ;
629 [label="gini = 0.0\nsamples = 3\nvalue = [0, 3]"] ;
627 -> 629 ;
630 [label="gini = 0.444\nsamples = 3\nvalue = [2, 1]"] ;
626 -> 630 ;
631 [label="gini = 0.0\nsamples = 3\nvalue = [0, 3]"] ;
625 -> 631 ;
632 [label="gini = 0.0\nsamples = 3\nvalue = [3, 0]"] ;
618 -> 632 ;
633 [label="X[1] <= 2274.0\ngini = 0.159\nsamples = 23\nvalue = [2, 21]"] ;
617 -> 633 ;
634 [label="gini = 0.0\nsamples = 11\nvalue = [0, 11]"] ;
633 -> 634 ;
635 [label="X[1] <= 2281.5\ngini = 0.278\nsamples = 12\nvalue = [2, 10]"] ;
633 -> 635 ;
636 [label="gini = 0.5\nsamples = 4\nvalue = [2, 2]"] ;
635 -> 636 ;
637 [label="gini = 0.0\nsamples = 8\nvalue = [0, 8]"] ;
635 -> 637 ;
638 [label="gini = 0.142\nsamples = 13\nvalue = [12, 1]"] ;
602 -> 638 ;
639 [label="gini = 0.0\nsamples = 26\nvalue = [0, 26]"] ;
601 -> 639 ;
640 [label="gini = 0.0\nsamples = 4\nvalue = [4, 0]"] ;
518 -> 640 ;
641 [label="X[1] <= 2526.5\ngini = 0.192\nsamples = 567\nvalue = [61, 506]"] ;
517 -> 641 ;
642 [label="gini = 0.0\nsamples = 32\nvalue = [0, 32]"] ;
641 -> 642 ;
643 [label="X[1] <= 2548.5\ngini = 0.202\nsamples = 535\nvalue = [61, 474]"] ;
641 -> 643 ;
644 [label="gini = 0.5\nsamples = 4\nvalue = [2, 2]"] ;
643 -> 644 ;
645 [label="X[1] <= 4356.5\ngini = 0.198\nsamples = 531\nvalue = [59, 472]"] ;
643 -> 645 ;
646 [label="X[1] <= 4353.5\ngini = 0.217\nsamples = 437\nvalue = [54, 383]"] ;
645 -> 646 ;
647 [label="X[1] <= 4151.0\ngini = 0.202\nsamples = 431\nvalue = [49, 382]"] ;
646 -> 647 ;
648 [label="X[1] <= 2769.5\ngini = 0.187\nsamples = 393\nvalue = [41, 352]"] ;
647 -> 648 ;
649 [label="X[1] <= 2593.0\ngini = 0.269\nsamples = 75\nvalue = [12, 63]"] ;
648 -> 649 ;
650 [label="gini = 0.0\nsamples = 16\nvalue = [0, 16]"] ;
649 -> 650 ;
651 [label="X[1] <= 2615.0\ngini = 0.324\nsamples = 59\nvalue = [12, 47]"] ;
649 -> 651 ;
652 [label="gini = 0.0\nsamples = 4\nvalue = [4, 0]"] ;
651 -> 652 ;
653 [label="X[1] <= 2758.0\ngini = 0.249\nsamples = 55\nvalue = [8, 47]"] ;
651 -> 653 ;
654 [label="X[1] <= 2653.5\ngini = 0.169\nsamples = 43\nvalue = [4, 39]"] ;
653 -> 654 ;
655 [label="gini = 0.0\nsamples = 13\nvalue = [0, 13]"] ;
654 -> 655 ;
656 [label="X[1] <= 2729.0\ngini = 0.231\nsamples = 30\nvalue = [4, 26]"] ;
654 -> 656 ;
657 [label="X[1] <= 2667.0\ngini = 0.252\nsamples = 27\nvalue = [4, 23]"] ;
656 -> 657 ;
658 [label="gini = 0.298\nsamples = 11\nvalue = [2, 9]"] ;
657 -> 658 ;
659 [label="X[1] <= 2718.0\ngini = 0.219\nsamples = 16\nvalue = [2, 14]"] ;
657 -> 659 ;
660 [label="gini = 0.0\nsamples = 4\nvalue = [0, 4]"] ;
659 -> 660 ;
661 [label="gini = 0.278\nsamples = 12\nvalue = [2, 10]"] ;
659 -> 661 ;
662 [label="gini = 0.0\nsamples = 3\nvalue = [0, 3]"] ;
656 -> 662 ;
663 [label="gini = 0.444\nsamples = 12\nvalue = [4, 8]"] ;
653 -> 663 ;
664 [label="X[1] <= 2948.0\ngini = 0.166\nsamples = 318\nvalue = [29, 289]"] ;
648 -> 664 ;
665 [label="gini = 0.0\nsamples = 33\nvalue = [0, 33]"] ;
664 -> 665 ;
666 [label="X[1] <= 2953.0\ngini = 0.183\nsamples = 285\nvalue = [29, 256]"] ;
664 -> 666 ;
667 [label="gini = 0.0\nsamples = 1\nvalue = [1, 0]"] ;
666 -> 667 ;
668 [label="X[1] <= 4032.5\ngini = 0.178\nsamples = 284\nvalue = [28, 256]"] ;
666 -> 668 ;
669 [label="X[1] <= 3985.5\ngini = 0.192\nsamples = 260\nvalue = [28, 232]"] ;
668 -> 669 ;
670 [label="X[1] <= 3828.0\ngini = 0.173\nsamples = 251\nvalue = [24, 227]"] ;
669 -> 670 ;
671 [label="X[1] <= 3811.0\ngini = 0.205\nsamples = 207\nvalue = [24, 183]"] ;
670 -> 671 ;
672 [label="X[1] <= 3196.0\ngini = 0.198\nsamples = 206\nvalue = [23, 183]"] ;
671 -> 672 ;
673 [label="X[1] <= 3053.0\ngini = 0.089\nsamples = 43\nvalue = [2, 41]"] ;
672 -> 673 ;
674 [label="X[1] <= 3029.0\ngini = 0.245\nsamples = 14\nvalue = [2, 12]"] ;
673 -> 674 ;
675 [label="X[1] <= 3001.0\ngini = 0.142\nsamples = 13\nvalue = [1, 12]"] ;
674 -> 675 ;
676 [label="gini = 0.0\nsamples = 7\nvalue = [0, 7]"] ;
675 -> 676 ;
677 [label="X[1] <= 3005.5\ngini = 0.278\nsamples = 6\nvalue = [1, 5]"] ;
675 -> 677 ;
678 [label="gini = 0.0\nsamples = 1\nvalue = [1, 0]"] ;
677 -> 678 ;
679 [label="gini = 0.0\nsamples = 5\nvalue = [0, 5]"] ;
677 -> 679 ;
680 [label="gini = 0.0\nsamples = 1\nvalue = [1, 0]"] ;
674 -> 680 ;
681 [label="gini = 0.0\nsamples = 29\nvalue = [0, 29]"] ;
673 -> 681 ;
682 [label="X[1] <= 3203.5\ngini = 0.224\nsamples = 163\nvalue = [21, 142]"] ;
672 -> 682 ;
683 [label="gini = 0.0\nsamples = 5\nvalue = [5, 0]"] ;
682 -> 683 ;
684 [label="X[1] <= 3382.0\ngini = 0.182\nsamples = 158\nvalue = [16, 142]"] ;
682 -> 684 ;
685 [label="gini = 0.0\nsamples = 40\nvalue = [0, 40]"] ;
684 -> 685 ;
686 [label="X[1] <= 3391.0\ngini = 0.234\nsamples = 118\nvalue = [16, 102]"] ;
684 -> 686 ;
687 [label="gini = 0.5\nsamples = 14\nvalue = [7, 7]"] ;
686 -> 687 ;
688 [label="X[1] <= 3563.0\ngini = 0.158\nsamples = 104\nvalue = [9, 95]"] ;
686 -> 688 ;
689 [label="gini = 0.0\nsamples = 34\nvalue = [0, 34]"] ;
688 -> 689 ;
690 [label="X[1] <= 3572.0\ngini = 0.224\nsamples = 70\nvalue = [9, 61]"] ;
688 -> 690 ;
691 [label="gini = 0.0\nsamples = 3\nvalue = [3, 0]"] ;
690 -> 691 ;
692 [label="X[1] <= 3662.5\ngini = 0.163\nsamples = 67\nvalue = [6, 61]"] ;
690 -> 692 ;
693 [label="gini = 0.0\nsamples = 24\nvalue = [0, 24]"] ;
692 -> 693 ;
694 [label="X[1] <= 3711.0\ngini = 0.24\nsamples = 43\nvalue = [6, 37]"] ;
692 -> 694 ;
695 [label="X[1] <= 3679.0\ngini = 0.463\nsamples = 11\nvalue = [4, 7]"] ;
694 -> 695 ;
696 [label="gini = 0.5\nsamples = 4\nvalue = [2, 2]"] ;
695 -> 696 ;
697 [label="X[1] <= 3691.0\ngini = 0.408\nsamples = 7\nvalue = [2, 5]"] ;
695 -> 697 ;
698 [label="gini = 0.0\nsamples = 2\nvalue = [0, 2]"] ;
697 -> 698 ;
699 [label="X[1] <= 3698.5\ngini = 0.48\nsamples = 5\nvalue = [2, 3]"] ;
697 -> 699 ;
700 [label="gini = 0.5\nsamples = 2\nvalue = [1, 1]"] ;
699 -> 700 ;
701 [label="gini = 0.444\nsamples = 3\nvalue = [1, 2]"] ;
699 -> 701 ;
702 [label="X[1] <= 3770.0\ngini = 0.117\nsamples = 32\nvalue = [2, 30]"] ;
694 -> 702 ;
703 [label="gini = 0.0\nsamples = 23\nvalue = [0, 23]"] ;
702 -> 703 ;
704 [label="X[1] <= 3778.0\ngini = 0.346\nsamples = 9\nvalue = [2, 7]"] ;
702 -> 704 ;
705 [label="gini = 0.0\nsamples = 2\nvalue = [2, 0]"] ;
704 -> 705 ;
706 [label="gini = 0.0\nsamples = 7\nvalue = [0, 7]"] ;
704 -> 706 ;
707 [label="gini = 0.0\nsamples = 1\nvalue = [1, 0]"] ;
671 -> 707 ;
708 [label="gini = 0.0\nsamples = 44\nvalue = [0, 44]"] ;
670 -> 708 ;
709 [label="X[1] <= 4022.0\ngini = 0.494\nsamples = 9\nvalue = [4, 5]"] ;
669 -> 709 ;
710 [label="X[1] <= 3998.5\ngini = 0.444\nsamples = 6\nvalue = [2, 4]"] ;
709 -> 710 ;
711 [label="gini = 0.5\nsamples = 4\nvalue = [2, 2]"] ;
710 -> 711 ;
712 [label="gini = 0.0\nsamples = 2\nvalue = [0, 2]"] ;
710 -> 712 ;
713 [label="gini = 0.444\nsamples = 3\nvalue = [2, 1]"] ;
709 -> 713 ;
714 [label="gini = 0.0\nsamples = 24\nvalue = [0, 24]"] ;
668 -> 714 ;
715 [label="X[1] <= 4230.5\ngini = 0.332\nsamples = 38\nvalue = [8, 30]"] ;
647 -> 715 ;
716 [label="X[1] <= 4225.5\ngini = 0.488\nsamples = 19\nvalue = [8, 11]"] ;
715 -> 716 ;
717 [label="X[1] <= 4209.0\ngini = 0.408\nsamples = 14\nvalue = [4, 10]"] ;
716 -> 717 ;
718 [label="X[1] <= 4180.5\ngini = 0.5\nsamples = 8\nvalue = [4, 4]"] ;
717 -> 718 ;
719 [label="X[1] <= 4160.0\ngini = 0.444\nsamples = 3\nvalue = [2, 1]"] ;
718 -> 719 ;
720 [label="gini = 0.5\nsamples = 2\nvalue = [1, 1]"] ;
719 -> 720 ;
721 [label="gini = 0.0\nsamples = 1\nvalue = [1, 0]"] ;
719 -> 721 ;
722 [label="X[1] <= 4195.5\ngini = 0.48\nsamples = 5\nvalue = [2, 3]"] ;
718 -> 722 ;
723 [label="gini = 0.0\nsamples = 2\nvalue = [0, 2]"] ;
722 -> 723 ;
724 [label="gini = 0.444\nsamples = 3\nvalue = [2, 1]"] ;
722 -> 724 ;
725 [label="gini = 0.0\nsamples = 6\nvalue = [0, 6]"] ;
717 -> 725 ;
726 [label="gini = 0.32\nsamples = 5\nvalue = [4, 1]"] ;
716 -> 726 ;
727 [label="gini = 0.0\nsamples = 19\nvalue = [0, 19]"] ;
715 -> 727 ;
728 [label="gini = 0.278\nsamples = 6\nvalue = [5, 1]"] ;
646 -> 728 ;
729 [label="X[1] <= 4559.5\ngini = 0.101\nsamples = 94\nvalue = [5, 89]"] ;
645 -> 729 ;
730 [label="gini = 0.0\nsamples = 49\nvalue = [0, 49]"] ;
729 -> 730 ;
731 [label="X[1] <= 4562.5\ngini = 0.198\nsamples = 45\nvalue = [5, 40]"] ;
729 -> 731 ;
732 [label="gini = 0.48\nsamples = 10\nvalue = [4, 6]"] ;
731 -> 732 ;
733 [label="X[1] <= 4607.0\ngini = 0.056\nsamples = 35\nvalue = [1, 34]"] ;
731 -> 733 ;
734 [label="X[1] <= 4597.5\ngini = 0.153\nsamples = 12\nvalue = [1, 11]"] ;
733 -> 734 ;
735 [label="gini = 0.0\nsamples = 11\nvalue = [0, 11]"] ;
734 -> 735 ;
736 [label="gini = 0.0\nsamples = 1\nvalue = [1, 0]"] ;
734 -> 736 ;
737 [label="gini = 0.0\nsamples = 23\nvalue = [0, 23]"] ;
733 -> 737 ;
738 [label="X[1] <= 4700.5\ngini = 0.356\nsamples = 3477\nvalue = [806, 2671]"] ;
462 -> 738 ;
739 [label="X[1] <= 4542.0\ngini = 0.354\nsamples = 3452\nvalue = [793, 2659]"] ;
738 -> 739 ;
740 [label="X[1] <= 4449.5\ngini = 0.36\nsamples = 3322\nvalue = [783, 2539]"] ;
739 -> 740 ;
741 [label="X[1] <= 4394.0\ngini = 0.356\nsamples = 3253\nvalue = [754, 2499]"] ;
740 -> 741 ;
742 [label="X[1] <= 4324.5\ngini = 0.36\nsamples = 3203\nvalue = [753, 2450]"] ;
741 -> 742 ;
743 [label="X[1] <= 2048.5\ngini = 0.356\nsamples = 3160\nvalue = [731, 2429]"] ;
742 -> 743 ;
744 [label="X[1] <= 552.5\ngini = 0.334\nsamples = 1548\nvalue = [328, 1220]"] ;
743 -> 744 ;
745 [label="X[1] <= 549.0\ngini = 0.394\nsamples = 482\nvalue = [130, 352]"] ;
744 -> 745 ;
746 [label="X[1] <= 176.5\ngini = 0.384\nsamples = 474\nvalue = [123, 351]"] ;
745 -> 746 ;
747 [label="X[0] <= 17.5\ngini = 0.254\nsamples = 134\nvalue = [20, 114]"] ;
746 -> 747 ;
748 [label="X[0] <= 16.5\ngini = 0.103\nsamples = 55\nvalue = [3, 52]"] ;
747 -> 748 ;
749 [label="X[1] <= 101.5\ngini = 0.161\nsamples = 34\nvalue = [3, 31]"] ;
748 -> 749 ;
750 [label="gini = 0.0\nsamples = 12\nvalue = [0, 12]"] ;
749 -> 750 ;
751 [label="X[1] <= 117.0\ngini = 0.236\nsamples = 22\nvalue = [3, 19]"] ;
749 -> 751 ;
752 [label="gini = 0.444\nsamples = 3\nvalue = [2, 1]"] ;
751 -> 752 ;
753 [label="X[1] <= 159.0\ngini = 0.1\nsamples = 19\nvalue = [1, 18]"] ;
751 -> 753 ;
754 [label="gini = 0.0\nsamples = 7\nvalue = [0, 7]"] ;
753 -> 754 ;
755 [label="X[1] <= 160.5\ngini = 0.153\nsamples = 12\nvalue = [1, 11]"] ;
753 -> 755 ;
756 [label="gini = 0.245\nsamples = 7\nvalue = [1, 6]"] ;
755 -> 756 ;
757 [label="gini = 0.0\nsamples = 5\nvalue = [0, 5]"] ;
755 -> 757 ;
758 [label="gini = 0.0\nsamples = 21\nvalue = [0, 21]"] ;
748 -> 758 ;
759 [label="X[1] <= 49.5\ngini = 0.338\nsamples = 79\nvalue = [17, 62]"] ;
747 -> 759 ;
760 [label="X[1] <= 46.0\ngini = 0.486\nsamples = 12\nvalue = [5, 7]"] ;
759 -> 760 ;
761 [label="gini = 0.0\nsamples = 4\nvalue = [0, 4]"] ;
760 -> 761 ;
762 [label="gini = 0.469\nsamples = 8\nvalue = [5, 3]"] ;
760 -> 762 ;
763 [label="X[1] <= 99.5\ngini = 0.294\nsamples = 67\nvalue = [12, 55]"] ;
759 -> 763 ;
764 [label="gini = 0.0\nsamples = 21\nvalue = [0, 21]"] ;
763 -> 764 ;
765 [label="X[1] <= 160.5\ngini = 0.386\nsamples = 46\nvalue = [12, 34]"] ;
763 -> 765 ;
766 [label="X[1] <= 159.0\ngini = 0.444\nsamples = 36\nvalue = [12, 24]"] ;
765 -> 766 ;
767 [label="X[1] <= 125.0\ngini = 0.415\nsamples = 34\nvalue = [10, 24]"] ;
766 -> 767 ;
768 [label="X[1] <= 110.5\ngini = 0.48\nsamples = 20\nvalue = [8, 12]"] ;
767 -> 768 ;
769 [label="X[1] <= 105.0\ngini = 0.426\nsamples = 13\nvalue = [4, 9]"] ;
768 -> 769 ;
770 [label="X[1] <= 103.0\ngini = 0.375\nsamples = 8\nvalue = [2, 6]"] ;
769 -> 770 ;
771 [label="gini = 0.444\nsamples = 6\nvalue = [2, 4]"] ;
770 -> 771 ;
772 [label="gini = 0.0\nsamples = 2\nvalue = [0, 2]"] ;
770 -> 772 ;
773 [label="gini = 0.48\nsamples = 5\nvalue = [2, 3]"] ;
769 -> 773 ;
774 [label="X[1] <= 115.5\ngini = 0.49\nsamples = 7\nvalue = [4, 3]"] ;
768 -> 774 ;
775 [label="gini = 0.444\nsamples = 3\nvalue = [2, 1]"] ;
774 -> 775 ;
776 [label="X[1] <= 119.0\ngini = 0.5\nsamples = 4\nvalue = [2, 2]"] ;
774 -> 776 ;
777 [label="gini = 0.0\nsamples = 1\nvalue = [0, 1]"] ;
776 -> 777 ;
778 [label="gini = 0.444\nsamples = 3\nvalue = [2, 1]"] ;
776 -> 778 ;
779 [label="X[1] <= 139.5\ngini = 0.245\nsamples = 14\nvalue = [2, 12]"] ;
767 -> 779 ;
780 [label="gini = 0.0\nsamples = 8\nvalue = [0, 8]"] ;
779 -> 780 ;
781 [label="X[1] <= 152.5\ngini = 0.444\nsamples = 6\nvalue = [2, 4]"] ;
779 -> 781 ;
782 [label="X[1] <= 144.0\ngini = 0.5\nsamples = 4\nvalue = [2, 2]"] ;
781 -> 782 ;
783 [label="gini = 0.5\nsamples = 2\nvalue = [1, 1]"] ;
782 -> 783 ;
784 [label="gini = 0.5\nsamples = 2\nvalue = [1, 1]"] ;
782 -> 784 ;
785 [label="gini = 0.0\nsamples = 2\nvalue = [0, 2]"] ;
781 -> 785 ;
786 [label="gini = 0.0\nsamples = 2\nvalue = [2, 0]"] ;
766 -> 786 ;
787 [label="gini = 0.0\nsamples = 10\nvalue = [0, 10]"] ;
765 -> 787 ;
788 [label="X[1] <= 210.5\ngini = 0.422\nsamples = 340\nvalue = [103, 237]"] ;
746 -> 788 ;
789 [label="X[1] <= 180.0\ngini = 0.476\nsamples = 41\nvalue = [25, 16]"] ;
788 -> 789 ;
790 [label="gini = 0.0\nsamples = 5\nvalue = [5, 0]"] ;
789 -> 790 ;
791 [label="X[1] <= 204.5\ngini = 0.494\nsamples = 36\nvalue = [20, 16]"] ;
789 -> 791 ;
792 [label="X[0] <= 16.5\ngini = 0.48\nsamples = 20\nvalue = [8, 12]"] ;
791 -> 792 ;
793 [label="gini = 0.0\nsamples = 3\nvalue = [0, 3]"] ;
792 -> 793 ;
794 [label="X[1] <= 185.0\ngini = 0.498\nsamples = 17\nvalue = [8, 9]"] ;
792 -> 794 ;
795 [label="gini = 0.0\nsamples = 2\nvalue = [0, 2]"] ;
794 -> 795 ;
796 [label="X[0] <= 17.5\ngini = 0.498\nsamples = 15\nvalue = [8, 7]"] ;
794 -> 796 ;
797 [label="X[1] <= 192.0\ngini = 0.408\nsamples = 7\nvalue = [5, 2]"] ;
796 -> 797 ;
798 [label="gini = 0.0\nsamples = 4\nvalue = [4, 0]"] ;
797 -> 798 ;
799 [label="X[1] <= 197.5\ngini = 0.444\nsamples = 3\nvalue = [1, 2]"] ;
797 -> 799 ;
800 [label="gini = 0.5\nsamples = 2\nvalue = [1, 1]"] ;
799 -> 800 ;
801 [label="gini = 0.0\nsamples = 1\nvalue = [0, 1]"] ;
799 -> 801 ;
802 [label="X[1] <= 188.5\ngini = 0.469\nsamples = 8\nvalue = [3, 5]"] ;
796 -> 802 ;
803 [label="gini = 0.5\nsamples = 6\nvalue = [3, 3]"] ;
802 -> 803 ;
804 [label="gini = 0.0\nsamples = 2\nvalue = [0, 2]"] ;
802 -> 804 ;
805 [label="X[0] <= 17.0\ngini = 0.375\nsamples = 16\nvalue = [12, 4]"] ;
791 -> 805 ;
806 [label="gini = 0.32\nsamples = 5\nvalue = [4, 1]"] ;
805 -> 806 ;
807 [label="gini = 0.397\nsamples = 11\nvalue = [8, 3]"] ;
805 -> 807 ;
808 [label="X[1] <= 237.5\ngini = 0.386\nsamples = 299\nvalue = [78, 221]"] ;
788 -> 808 ;
809 [label="gini = 0.0\nsamples = 15\nvalue = [0, 15]"] ;
808 -> 809 ;
810 [label="X[1] <= 243.5\ngini = 0.398\nsamples = 284\nvalue = [78, 206]"] ;
808 -> 810 ;
811 [label="X[0] <= 17.5\ngini = 0.391\nsamples = 15\nvalue = [11, 4]"] ;
810 -> 811 ;
812 [label="gini = 0.0\nsamples = 1\nvalue = [0, 1]"] ;
811 -> 812 ;
813 [label="X[1] <= 239.0\ngini = 0.337\nsamples = 14\nvalue = [11, 3]"] ;
811 -> 813 ;
814 [label="gini = 0.32\nsamples = 10\nvalue = [8, 2]"] ;
813 -> 814 ;
815 [label="gini = 0.375\nsamples = 4\nvalue = [3, 1]"] ;
813 -> 815 ;
816 [label="X[1] <= 316.5\ngini = 0.374\nsamples = 269\nvalue = [67, 202]"] ;
810 -> 816 ;
817 [label="gini = 0.0\nsamples = 28\nvalue = [0, 28]"] ;
816 -> 817 ;
818 [label="X[1] <= 354.5\ngini = 0.401\nsamples = 241\nvalue = [67, 174]"] ;
816 -> 818 ;
819 [label="X[1] <= 350.5\ngini = 0.488\nsamples = 45\nvalue = [19, 26]"] ;
818 -> 819 ;
820 [label="X[1] <= 319.0\ngini = 0.408\nsamples = 28\nvalue = [8, 20]"] ;
819 -> 820 ;
821 [label="gini = 0.0\nsamples = 2\nvalue = [2, 0]"] ;
820 -> 821 ;
822 [label="X[1] <= 329.5\ngini = 0.355\nsamples = 26\nvalue = [6, 20]"] ;
820 -> 822 ;
823 [label="gini = 0.0\nsamples = 7\nvalue = [0, 7]"] ;
822 -> 823 ;
824 [label="X[1] <= 333.5\ngini = 0.432\nsamples = 19\nvalue = [6, 13]"] ;
822 -> 824 ;
825 [label="gini = 0.5\nsamples = 12\nvalue = [6, 6]"] ;
824 -> 825 ;
826 [label="gini = 0.0\nsamples = 7\nvalue = [0, 7]"] ;
824 -> 826 ;
827 [label="X[0] <= 17.5\ngini = 0.457\nsamples = 17\nvalue = [11, 6]"] ;
819 -> 827 ;
828 [label="gini = 0.337\nsamples = 14\nvalue = [11, 3]"] ;
827 -> 828 ;
829 [label="gini = 0.0\nsamples = 3\nvalue = [0, 3]"] ;
827 -> 829 ;
830 [label="X[1] <= 399.0\ngini = 0.37\nsamples = 196\nvalue = [48, 148]"] ;
818 -> 830 ;
831 [label="X[1] <= 376.0\ngini = 0.145\nsamples = 38\nvalue = [3, 35]"] ;
830 -> 831 ;
832 [label="X[1] <= 374.0\ngini = 0.305\nsamples = 16\nvalue = [3, 13]"] ;
831 -> 832 ;
833 [label="gini = 0.0\nsamples = 13\nvalue = [0, 13]"] ;
832 -> 833 ;
834 [label="gini = 0.0\nsamples = 3\nvalue = [3, 0]"] ;
832 -> 834 ;
835 [label="gini = 0.0\nsamples = 22\nvalue = [0, 22]"] ;
831 -> 835 ;
836 [label="X[1] <= 425.5\ngini = 0.407\nsamples = 158\nvalue = [45, 113]"] ;
830 -> 836 ;
837 [label="X[1] <= 424.5\ngini = 0.496\nsamples = 46\nvalue = [21, 25]"] ;
836 -> 837 ;
838 [label="X[1] <= 420.0\ngini = 0.482\nsamples = 42\nvalue = [17, 25]"] ;
837 -> 838 ;
839 [label="X[1] <= 401.5\ngini = 0.388\nsamples = 19\nvalue = [5, 14]"] ;
838 -> 839 ;
840 [label="X[0] <= 17.5\ngini = 0.5\nsamples = 6\nvalue = [3, 3]"] ;
839 -> 840 ;
841 [label="gini = 0.0\nsamples = 2\nvalue = [0, 2]"] ;
840 -> 841 ;
842 [label="gini = 0.375\nsamples = 4\nvalue = [3, 1]"] ;
840 -> 842 ;
843 [label="X[1] <= 415.0\ngini = 0.26\nsamples = 13\nvalue = [2, 11]"] ;
839 -> 843 ;
844 [label="gini = 0.0\nsamples = 7\nvalue = [0, 7]"] ;
843 -> 844 ;
845 [label="X[0] <= 16.5\ngini = 0.444\nsamples = 6\nvalue = [2, 4]"] ;
843 -> 845 ;
846 [label="gini = 0.0\nsamples = 2\nvalue = [0, 2]"] ;
845 -> 846 ;
847 [label="gini = 0.5\nsamples = 4\nvalue = [2, 2]"] ;
845 -> 847 ;
848 [label="X[1] <= 423.0\ngini = 0.499\nsamples = 23\nvalue = [12, 11]"] ;
838 -> 848 ;
849 [label="X[1] <= 421.5\ngini = 0.245\nsamples = 7\nvalue = [6, 1]"] ;
848 -> 849 ;
850 [label="gini = 0.0\nsamples = 1\nvalue = [1, 0]"] ;
849 -> 850 ;
851 [label="gini = 0.278\nsamples = 6\nvalue = [5, 1]"] ;
849 -> 851 ;
852 [label="X[0] <= 16.5\ngini = 0.469\nsamples = 16\nvalue = [6, 10]"] ;
848 -> 852 ;
853 [label="gini = 0.48\nsamples = 15\nvalue = [6, 9]"] ;
852 -> 853 ;
854 [label="gini = 0.0\nsamples = 1\nvalue = [0, 1]"] ;
852 -> 854 ;
855 [label="gini = 0.0\nsamples = 4\nvalue = [4, 0]"] ;
837 -> 855 ;
856 [label="X[1] <= 479.5\ngini = 0.337\nsamples = 112\nvalue = [24, 88]"] ;
836 -> 856 ;
857 [label="X[1] <= 448.0\ngini = 0.237\nsamples = 51\nvalue = [7, 44]"] ;
856 -> 857 ;
858 [label="X[1] <= 443.5\ngini = 0.342\nsamples = 32\nvalue = [7, 25]"] ;
857 -> 858 ;
859 [label="X[0] <= 17.5\ngini = 0.159\nsamples = 23\nvalue = [2, 21]"] ;
858 -> 859 ;
860 [label="gini = 0.0\nsamples = 12\nvalue = [0, 12]"] ;
859 -> 860 ;
861 [label="X[1] <= 428.5\ngini = 0.298\nsamples = 11\nvalue = [2, 9]"] ;
859 -> 861 ;
862 [label="gini = 0.0\nsamples = 2\nvalue = [0, 2]"] ;
861 -> 862 ;
863 [label="X[1] <= 436.5\ngini = 0.346\nsamples = 9\nvalue = [2, 7]"] ;
861 -> 863 ;
864 [label="gini = 0.408\nsamples = 7\nvalue = [2, 5]"] ;
863 -> 864 ;
865 [label="gini = 0.0\nsamples = 2\nvalue = [0, 2]"] ;
863 -> 865 ;
866 [label="X[0] <= 17.0\ngini = 0.494\nsamples = 9\nvalue = [5, 4]"] ;
858 -> 866 ;
867 [label="gini = 0.278\nsamples = 6\nvalue = [5, 1]"] ;
866 -> 867 ;
868 [label="gini = 0.0\nsamples = 3\nvalue = [0, 3]"] ;
866 -> 868 ;
869 [label="gini = 0.0\nsamples = 19\nvalue = [0, 19]"] ;
857 -> 869 ;
870 [label="X[1] <= 529.5\ngini = 0.402\nsamples = 61\nvalue = [17, 44]"] ;
856 -> 870 ;
871 [label="X[0] <= 17.5\ngini = 0.427\nsamples = 55\nvalue = [17, 38]"] ;
870 -> 871 ;
872 [label="X[1] <= 524.0\ngini = 0.366\nsamples = 29\nvalue = [7, 22]"] ;
871 -> 872 ;
873 [label="gini = 0.0\nsamples = 13\nvalue = [0, 13]"] ;
872 -> 873 ;
874 [label="gini = 0.492\nsamples = 16\nvalue = [7, 9]"] ;
872 -> 874 ;
875 [label="X[1] <= 520.0\ngini = 0.473\nsamples = 26\nvalue = [10, 16]"] ;
871 -> 875 ;
876 [label="X[1] <= 514.0\ngini = 0.496\nsamples = 22\nvalue = [10, 12]"] ;
875 -> 876 ;
877 [label="X[1] <= 509.0\ngini = 0.48\nsamples = 20\nvalue = [8, 12]"] ;
876 -> 877 ;
878 [label="X[1] <= 506.5\ngini = 0.498\nsamples = 17\nvalue = [8, 9]"] ;
877 -> 878 ;
879 [label="X[1] <= 490.5\ngini = 0.463\nsamples = 11\nvalue = [4, 7]"] ;
878 -> 879 ;
880 [label="gini = 0.5\nsamples = 8\nvalue = [4, 4]"] ;
879 -> 880 ;
881 [label="gini = 0.0\nsamples = 3\nvalue = [0, 3]"] ;
879 -> 881 ;
882 [label="gini = 0.444\nsamples = 6\nvalue = [4, 2]"] ;
878 -> 882 ;
883 [label="gini = 0.0\nsamples = 3\nvalue = [0, 3]"] ;
877 -> 883 ;
884 [label="gini = 0.0\nsamples = 2\nvalue = [2, 0]"] ;
876 -> 884 ;
885 [label="gini = 0.0\nsamples = 4\nvalue = [0, 4]"] ;
875 -> 885 ;
886 [label="gini = 0.0\nsamples = 6\nvalue = [0, 6]"] ;
870 -> 886 ;
887 [label="X[0] <= 16.5\ngini = 0.219\nsamples = 8\nvalue = [7, 1]"] ;
745 -> 887 ;
888 [label="gini = 0.0\nsamples = 7\nvalue = [7, 0]"] ;
887 -> 888 ;
889 [label="gini = 0.0\nsamples = 1\nvalue = [0, 1]"] ;
887 -> 889 ;
890 [label="X[1] <= 1001.0\ngini = 0.302\nsamples = 1066\nvalue = [198, 868]"] ;
744 -> 890 ;
891 [label="X[1] <= 752.5\ngini = 0.201\nsamples = 352\nvalue = [40, 312]"] ;
890 -> 891 ;
892 [label="X[1] <= 584.5\ngini = 0.307\nsamples = 127\nvalue = [24, 103]"] ;
891 -> 892 ;
893 [label="gini = 0.0\nsamples = 22\nvalue = [0, 22]"] ;
892 -> 893 ;
894 [label="X[1] <= 749.5\ngini = 0.353\nsamples = 105\nvalue = [24, 81]"] ;
892 -> 894 ;
895 [label="X[1] <= 592.0\ngini = 0.332\nsamples = 100\nvalue = [21, 79]"] ;
894 -> 895 ;
896 [label="gini = 0.444\nsamples = 3\nvalue = [2, 1]"] ;
895 -> 896 ;
897 [label="X[1] <= 614.5\ngini = 0.315\nsamples = 97\nvalue = [19, 78]"] ;
895 -> 897 ;
898 [label="gini = 0.0\nsamples = 10\nvalue = [0, 10]"] ;
897 -> 898 ;
899 [label="X[1] <= 626.0\ngini = 0.341\nsamples = 87\nvalue = [19, 68]"] ;
897 -> 899 ;
900 [label="X[1] <= 622.0\ngini = 0.5\nsamples = 12\nvalue = [6, 6]"] ;
899 -> 900 ;
901 [label="X[1] <= 618.0\ngini = 0.408\nsamples = 7\nvalue = [2, 5]"] ;
900 -> 901 ;
902 [label="X[0] <= 17.5\ngini = 0.444\nsamples = 6\nvalue = [2, 4]"] ;
901 -> 902 ;
903 [label="gini = 0.0\nsamples = 1\nvalue = [0, 1]"] ;
902 -> 903 ;
904 [label="gini = 0.48\nsamples = 5\nvalue = [2, 3]"] ;
902 -> 904 ;
905 [label="gini = 0.0\nsamples = 1\nvalue = [0, 1]"] ;
901 -> 905 ;
906 [label="gini = 0.32\nsamples = 5\nvalue = [4, 1]"] ;
900 -> 906 ;
907 [label="X[1] <= 658.0\ngini = 0.287\nsamples = 75\nvalue = [13, 62]"] ;
899 -> 907 ;
908 [label="gini = 0.0\nsamples = 18\nvalue = [0, 18]"] ;
907 -> 908 ;
909 [label="X[1] <= 727.0\ngini = 0.352\nsamples = 57\nvalue = [13, 44]"] ;
907 -> 909 ;
910 [label="X[1] <= 720.0\ngini = 0.395\nsamples = 48\nvalue = [13, 35]"] ;
909 -> 910 ;
911 [label="X[1] <= 710.0\ngini = 0.337\nsamples = 42\nvalue = [9, 33]"] ;
910 -> 911 ;
912 [label="X[1] <= 708.5\ngini = 0.389\nsamples = 34\nvalue = [9, 25]"] ;
911 -> 912 ;
913 [label="X[1] <= 668.0\ngini = 0.293\nsamples = 28\nvalue = [5, 23]"] ;
912 -> 913 ;
914 [label="X[0] <= 17.5\ngini = 0.5\nsamples = 4\nvalue = [2, 2]"] ;
913 -> 914 ;
915 [label="gini = 0.0\nsamples = 1\nvalue = [0, 1]"] ;
914 -> 915 ;
916 [label="gini = 0.444\nsamples = 3\nvalue = [2, 1]"] ;
914 -> 916 ;
917 [label="X[1] <= 688.5\ngini = 0.219\nsamples = 24\nvalue = [3, 21]"] ;
913 -> 917 ;
918 [label="gini = 0.0\nsamples = 7\nvalue = [0, 7]"] ;
917 -> 918 ;
919 [label="X[1] <= 692.5\ngini = 0.291\nsamples = 17\nvalue = [3, 14]"] ;
917 -> 919 ;
920 [label="gini = 0.444\nsamples = 3\nvalue = [2, 1]"] ;
919 -> 920 ;
921 [label="X[0] <= 17.0\ngini = 0.133\nsamples = 14\nvalue = [1, 13]"] ;
919 -> 921 ;
922 [label="gini = 0.0\nsamples = 8\nvalue = [0, 8]"] ;
921 -> 922 ;
923 [label="X[1] <= 695.5\ngini = 0.278\nsamples = 6\nvalue = [1, 5]"] ;
921 -> 923 ;
924 [label="gini = 0.0\nsamples = 1\nvalue = [0, 1]"] ;
923 -> 924 ;
925 [label="X[1] <= 701.0\ngini = 0.32\nsamples = 5\nvalue = [1, 4]"] ;
923 -> 925 ;
926 [label="gini = 0.375\nsamples = 4\nvalue = [1, 3]"] ;
925 -> 926 ;
927 [label="gini = 0.0\nsamples = 1\nvalue = [0, 1]"] ;
925 -> 927 ;
928 [label="X[0] <= 16.5\ngini = 0.444\nsamples = 6\nvalue = [4, 2]"] ;
912 -> 928 ;
929 [label="gini = 0.0\nsamples = 1\nvalue = [1, 0]"] ;
928 -> 929 ;
930 [label="gini = 0.48\nsamples = 5\nvalue = [3, 2]"] ;
928 -> 930 ;
931 [label="gini = 0.0\nsamples = 8\nvalue = [0, 8]"] ;
911 -> 931 ;
932 [label="X[0] <= 16.5\ngini = 0.444\nsamples = 6\nvalue = [4, 2]"] ;
910 -> 932 ;
933 [label="gini = 0.0\nsamples = 1\nvalue = [0, 1]"] ;
932 -> 933 ;
934 [label="X[0] <= 17.5\ngini = 0.32\nsamples = 5\nvalue = [4, 1]"] ;
932 -> 934 ;
935 [label="gini = 0.375\nsamples = 4\nvalue = [3, 1]"] ;
934 -> 935 ;
936 [label="gini = 0.0\nsamples = 1\nvalue = [1, 0]"] ;
934 -> 936 ;
937 [label="gini = 0.0\nsamples = 9\nvalue = [0, 9]"] ;
909 -> 937 ;
938 [label="gini = 0.48\nsamples = 5\nvalue = [3, 2]"] ;
894 -> 938 ;
939 [label="X[0] <= 16.5\ngini = 0.132\nsamples = 225\nvalue = [16, 209]"] ;
891 -> 939 ;
940 [label="gini = 0.0\nsamples = 53\nvalue = [0, 53]"] ;
939 -> 940 ;
941 [label="X[0] <= 17.5\ngini = 0.169\nsamples = 172\nvalue = [16, 156]"] ;
939 -> 941 ;
942 [label="X[1] <= 897.5\ngini = 0.31\nsamples = 47\nvalue = [9, 38]"] ;
941 -> 942 ;
943 [label="X[1] <= 862.5\ngini = 0.428\nsamples = 29\nvalue = [9, 20]"] ;
942 -> 943 ;
944 [label="gini = 0.0\nsamples = 11\nvalue = [0, 11]"] ;
943 -> 944 ;
945 [label="X[1] <= 882.5\ngini = 0.5\nsamples = 18\nvalue = [9, 9]"] ;
943 -> 945 ;
946 [label="X[1] <= 877.0\ngini = 0.463\nsamples = 11\nvalue = [7, 4]"] ;
945 -> 946 ;
947 [label="gini = 0.494\nsamples = 9\nvalue = [5, 4]"] ;
946 -> 947 ;
948 [label="gini = 0.0\nsamples = 2\nvalue = [2, 0]"] ;
946 -> 948 ;
949 [label="X[1] <= 890.5\ngini = 0.408\nsamples = 7\nvalue = [2, 5]"] ;
945 -> 949 ;
950 [label="gini = 0.0\nsamples = 4\nvalue = [0, 4]"] ;
949 -> 950 ;
951 [label="gini = 0.444\nsamples = 3\nvalue = [2, 1]"] ;
949 -> 951 ;
952 [label="gini = 0.0\nsamples = 18\nvalue = [0, 18]"] ;
942 -> 952 ;
953 [label="X[1] <= 990.0\ngini = 0.106\nsamples = 125\nvalue = [7, 118]"] ;
941 -> 953 ;
954 [label="X[1] <= 943.5\ngini = 0.095\nsamples = 120\nvalue = [6, 114]"] ;
953 -> 954 ;
955 [label="X[1] <= 938.0\ngini = 0.115\nsamples = 98\nvalue = [6, 92]"] ;
954 -> 955 ;
956 [label="X[1] <= 784.5\ngini = 0.08\nsamples = 96\nvalue = [4, 92]"] ;
955 -> 956 ;
957 [label="gini = 0.0\nsamples = 19\nvalue = [0, 19]"] ;
956 -> 957 ;
958 [label="X[1] <= 836.5\ngini = 0.098\nsamples = 77\nvalue = [4, 73]"] ;
956 -> 958 ;
959 [label="X[1] <= 827.5\ngini = 0.175\nsamples = 31\nvalue = [3, 28]"] ;
958 -> 959 ;
960 [label="X[1] <= 786.0\ngini = 0.077\nsamples = 25\nvalue = [1, 24]"] ;
959 -> 960 ;
961 [label="gini = 0.219\nsamples = 8\nvalue = [1, 7]"] ;
960 -> 961 ;
962 [label="gini = 0.0\nsamples = 17\nvalue = [0, 17]"] ;
960 -> 962 ;
963 [label="X[1] <= 832.0\ngini = 0.444\nsamples = 6\nvalue = [2, 4]"] ;
959 -> 963 ;
964 [label="X[1] <= 830.0\ngini = 0.375\nsamples = 4\nvalue = [1, 3]"] ;
963 -> 964 ;
965 [label="gini = 0.444\nsamples = 3\nvalue = [1, 2]"] ;
964 -> 965 ;
966 [label="gini = 0.0\nsamples = 1\nvalue = [0, 1]"] ;
964 -> 966 ;
967 [label="gini = 0.5\nsamples = 2\nvalue = [1, 1]"] ;
963 -> 967 ;
968 [label="X[1] <= 924.5\ngini = 0.043\nsamples = 46\nvalue = [1, 45]"] ;
958 -> 968 ;
969 [label="gini = 0.0\nsamples = 30\nvalue = [0, 30]"] ;
968 -> 969 ;
970 [label="X[1] <= 929.0\ngini = 0.117\nsamples = 16\nvalue = [1, 15]"] ;
968 -> 970 ;
971 [label="gini = 0.142\nsamples = 13\nvalue = [1, 12]"] ;
970 -> 971 ;
972 [label="gini = 0.0\nsamples = 3\nvalue = [0, 3]"] ;
970 -> 972 ;
973 [label="gini = 0.0\nsamples = 2\nvalue = [2, 0]"] ;
955 -> 973 ;
974 [label="gini = 0.0\nsamples = 22\nvalue = [0, 22]"] ;
954 -> 974 ;
975 [label="X[1] <= 993.5\ngini = 0.32\nsamples = 5\nvalue = [1, 4]"] ;
953 -> 975 ;
976 [label="gini = 0.0\nsamples = 1\nvalue = [1, 0]"] ;
975 -> 976 ;
977 [label="gini = 0.0\nsamples = 4\nvalue = [0, 4]"] ;
975 -> 977 ;
978 [label="X[1] <= 1919.0\ngini = 0.345\nsamples = 714\nvalue = [158, 556]"] ;
890 -> 978 ;
979 [label="X[1] <= 1017.0\ngini = 0.369\nsamples = 622\nvalue = [152, 470]"] ;
978 -> 979 ;
980 [label="X[0] <= 17.5\ngini = 0.498\nsamples = 17\nvalue = [8, 9]"] ;
979 -> 980 ;
981 [label="X[1] <= 1007.5\ngini = 0.469\nsamples = 8\nvalue = [5, 3]"] ;
980 -> 981 ;
982 [label="gini = 0.0\nsamples = 1\nvalue = [1, 0]"] ;
981 -> 982 ;
983 [label="gini = 0.49\nsamples = 7\nvalue = [4, 3]"] ;
981 -> 983 ;
984 [label="X[1] <= 1003.5\ngini = 0.444\nsamples = 9\nvalue = [3, 6]"] ;
980 -> 984 ;
985 [label="gini = 0.469\nsamples = 8\nvalue = [3, 5]"] ;
984 -> 985 ;
986 [label="gini = 0.0\nsamples = 1\nvalue = [0, 1]"] ;
984 -> 986 ;
987 [label="X[1] <= 1071.5\ngini = 0.363\nsamples = 605\nvalue = [144, 461]"] ;
979 -> 987 ;
988 [label="X[1] <= 1030.5\ngini = 0.056\nsamples = 35\nvalue = [1, 34]"] ;
987 -> 988 ;
989 [label="X[1] <= 1028.0\ngini = 0.198\nsamples = 9\nvalue = [1, 8]"] ;
988 -> 989 ;
990 [label="gini = 0.0\nsamples = 5\nvalue = [0, 5]"] ;
989 -> 990 ;
991 [label="X[0] <= 17.0\ngini = 0.375\nsamples = 4\nvalue = [1, 3]"] ;
989 -> 991 ;
992 [label="gini = 0.444\nsamples = 3\nvalue = [1, 2]"] ;
991 -> 992 ;
993 [label="gini = 0.0\nsamples = 1\nvalue = [0, 1]"] ;
991 -> 993 ;
994 [label="gini = 0.0\nsamples = 26\nvalue = [0, 26]"] ;
988 -> 994 ;
995 [label="X[1] <= 1083.5\ngini = 0.376\nsamples = 570\nvalue = [143, 427]"] ;
987 -> 995 ;
996 [label="X[0] <= 16.5\ngini = 0.219\nsamples = 8\nvalue = [7, 1]"] ;
995 -> 996 ;
997 [label="X[1] <= 1077.0\ngini = 0.375\nsamples = 4\nvalue = [3, 1]"] ;
996 -> 997 ;
998 [label="gini = 0.0\nsamples = 3\nvalue = [3, 0]"] ;
997 -> 998 ;
999 [label="gini = 0.0\nsamples = 1\nvalue = [0, 1]"] ;
997 -> 999 ;
1000 [label="gini = 0.0\nsamples = 4\nvalue = [4, 0]"] ;
996 -> 1000 ;
1001 [label="X[1] <= 1266.5\ngini = 0.367\nsamples = 562\nvalue = [136, 426]"] ;
995 -> 1001 ;
1002 [label="X[1] <= 1174.5\ngini = 0.296\nsamples = 94\nvalue = [17, 77]"] ;
1001 -> 1002 ;
1003 [label="X[1] <= 1099.5\ngini = 0.371\nsamples = 65\nvalue = [16, 49]"] ;
1002 -> 1003 ;
1004 [label="gini = 0.0\nsamples = 6\nvalue = [0, 6]"] ;
1003 -> 1004 ;
1005 [label="X[1] <= 1104.5\ngini = 0.395\nsamples = 59\nvalue = [16, 43]"] ;
1003 -> 1005 ;
1006 [label="gini = 0.0\nsamples = 3\nvalue = [3, 0]"] ;
1005 -> 1006 ;
1007 [label="X[1] <= 1119.0\ngini = 0.357\nsamples = 56\nvalue = [13, 43]"] ;
1005 -> 1007 ;
1008 [label="gini = 0.0\nsamples = 11\nvalue = [0, 11]"] ;
1007 -> 1008 ;
1009 [label="X[1] <= 1122.0\ngini = 0.411\nsamples = 45\nvalue = [13, 32]"] ;
1007 -> 1009 ;
1010 [label="gini = 0.0\nsamples = 4\nvalue = [4, 0]"] ;
1009 -> 1010 ;
1011 [label="X[1] <= 1159.5\ngini = 0.343\nsamples = 41\nvalue = [9, 32]"] ;
1009 -> 1011 ;
1012 [label="X[1] <= 1137.0\ngini = 0.111\nsamples = 17\nvalue = [1, 16]"] ;
1011 -> 1012 ;
1013 [label="gini = 0.0\nsamples = 11\nvalue = [0, 11]"] ;
1012 -> 1013 ;
1014 [label="X[1] <= 1143.5\ngini = 0.278\nsamples = 6\nvalue = [1, 5]"] ;
1012 -> 1014 ;
1015 [label="gini = 0.5\nsamples = 2\nvalue = [1, 1]"] ;
1014 -> 1015 ;
1016 [label="gini = 0.0\nsamples = 4\nvalue = [0, 4]"] ;
1014 -> 1016 ;
1017 [label="X[1] <= 1162.5\ngini = 0.444\nsamples = 24\nvalue = [8, 16]"] ;
1011 -> 1017 ;
1018 [label="X[0] <= 17.0\ngini = 0.5\nsamples = 6\nvalue = [3, 3]"] ;
1017 -> 1018 ;
1019 [label="gini = 0.0\nsamples = 3\nvalue = [3, 0]"] ;
1018 -> 1019 ;
1020 [label="gini = 0.0\nsamples = 3\nvalue = [0, 3]"] ;
1018 -> 1020 ;
1021 [label="X[0] <= 17.0\ngini = 0.401\nsamples = 18\nvalue = [5, 13]"] ;
1017 -> 1021 ;
1022 [label="gini = 0.0\nsamples = 6\nvalue = [0, 6]"] ;
1021 -> 1022 ;
1023 [label="X[1] <= 1167.0\ngini = 0.486\nsamples = 12\nvalue = [5, 7]"] ;
1021 -> 1023 ;
1024 [label="gini = 0.48\nsamples = 5\nvalue = [2, 3]"] ;
1023 -> 1024 ;
1025 [label="gini = 0.49\nsamples = 7\nvalue = [3, 4]"] ;
1023 -> 1025 ;
1026 [label="X[1] <= 1243.0\ngini = 0.067\nsamples = 29\nvalue = [1, 28]"] ;
1002 -> 1026 ;
1027 [label="gini = 0.0\nsamples = 17\nvalue = [0, 17]"] ;
1026 -> 1027 ;
1028 [label="X[1] <= 1250.0\ngini = 0.153\nsamples = 12\nvalue = [1, 11]"] ;
1026 -> 1028 ;
1029 [label="gini = 0.375\nsamples = 4\nvalue = [1, 3]"] ;
1028 -> 1029 ;
1030 [label="gini = 0.0\nsamples = 8\nvalue = [0, 8]"] ;
1028 -> 1030 ;
1031 [label="X[1] <= 1270.5\ngini = 0.379\nsamples = 468\nvalue = [119, 349]"] ;
1001 -> 1031 ;
1032 [label="X[0] <= 17.0\ngini = 0.32\nsamples = 5\nvalue = [4, 1]"] ;
1031 -> 1032 ;
1033 [label="gini = 0.0\nsamples = 4\nvalue = [4, 0]"] ;
1032 -> 1033 ;
1034 [label="gini = 0.0\nsamples = 1\nvalue = [0, 1]"] ;
1032 -> 1034 ;
1035 [label="X[1] <= 1396.5\ngini = 0.373\nsamples = 463\nvalue = [115, 348]"] ;
1031 -> 1035 ;
1036 [label="X[1] <= 1390.0\ngini = 0.433\nsamples = 104\nvalue = [33, 71]"] ;
1035 -> 1036 ;
1037 [label="X[0] <= 17.5\ngini = 0.385\nsamples = 96\nvalue = [25, 71]"] ;
1036 -> 1037 ;
1038 [label="X[1] <= 1333.5\ngini = 0.268\nsamples = 44\nvalue = [7, 37]"] ;
1037 -> 1038 ;
1039 [label="X[1] <= 1327.0\ngini = 0.393\nsamples = 26\nvalue = [7, 19]"] ;
1038 -> 1039 ;
1040 [label="X[1] <= 1291.5\ngini = 0.33\nsamples = 24\nvalue = [5, 19]"] ;
1039 -> 1040 ;
1041 [label="gini = 0.0\nsamples = 7\nvalue = [0, 7]"] ;
1040 -> 1041 ;
1042 [label="X[1] <= 1296.0\ngini = 0.415\nsamples = 17\nvalue = [5, 12]"] ;
1040 -> 1042 ;
1043 [label="gini = 0.0\nsamples = 1\nvalue = [1, 0]"] ;
1042 -> 1043 ;
1044 [label="X[0] <= 16.5\ngini = 0.375\nsamples = 16\nvalue = [4, 12]"] ;
1042 -> 1044 ;
1045 [label="X[1] <= 1302.0\ngini = 0.48\nsamples = 10\nvalue = [4, 6]"] ;
1044 -> 1045 ;
1046 [label="gini = 0.0\nsamples = 1\nvalue = [0, 1]"] ;
1045 -> 1046 ;
1047 [label="X[1] <= 1321.0\ngini = 0.494\nsamples = 9\nvalue = [4, 5]"] ;
1045 -> 1047 ;
1048 [label="X[1] <= 1313.5\ngini = 0.5\nsamples = 8\nvalue = [4, 4]"] ;
1047 -> 1048 ;
1049 [label="gini = 0.48\nsamples = 5\nvalue = [2, 3]"] ;
1048 -> 1049 ;
1050 [label="gini = 0.444\nsamples = 3\nvalue = [2, 1]"] ;
1048 -> 1050 ;
1051 [label="gini = 0.0\nsamples = 1\nvalue = [0, 1]"] ;
1047 -> 1051 ;
1052 [label="gini = 0.0\nsamples = 6\nvalue = [0, 6]"] ;
1044 -> 1052 ;
1053 [label="gini = 0.0\nsamples = 2\nvalue = [2, 0]"] ;
1039 -> 1053 ;
1054 [label="gini = 0.0\nsamples = 18\nvalue = [0, 18]"] ;
1038 -> 1054 ;
1055 [label="X[1] <= 1377.0\ngini = 0.453\nsamples = 52\nvalue = [18, 34]"] ;
1037 -> 1055 ;
1056 [label="X[1] <= 1347.0\ngini = 0.476\nsamples = 46\nvalue = [18, 28]"] ;
1055 -> 1056 ;
1057 [label="X[1] <= 1299.5\ngini = 0.365\nsamples = 25\nvalue = [6, 19]"] ;
1056 -> 1057 ;
1058 [label="gini = 0.0\nsamples = 5\nvalue = [0, 5]"] ;
1057 -> 1058 ;
1059 [label="X[1] <= 1304.5\ngini = 0.42\nsamples = 20\nvalue = [6, 14]"] ;
1057 -> 1059 ;
1060 [label="gini = 0.0\nsamples = 2\nvalue = [2, 0]"] ;
1059 -> 1060 ;
1061 [label="X[1] <= 1339.0\ngini = 0.346\nsamples = 18\nvalue = [4, 14]"] ;
1059 -> 1061 ;
1062 [label="gini = 0.0\nsamples = 7\nvalue = [0, 7]"] ;
1061 -> 1062 ;
1063 [label="X[1] <= 1341.5\ngini = 0.463\nsamples = 11\nvalue = [4, 7]"] ;
1061 -> 1063 ;
1064 [label="gini = 0.48\nsamples = 10\nvalue = [4, 6]"] ;
1063 -> 1064 ;
1065 [label="gini = 0.0\nsamples = 1\nvalue = [0, 1]"] ;
1063 -> 1065 ;
1066 [label="X[1] <= 1375.0\ngini = 0.49\nsamples = 21\nvalue = [12, 9]"] ;
1056 -> 1066 ;
1067 [label="X[1] <= 1371.5\ngini = 0.498\nsamples = 17\nvalue = [9, 8]"] ;
1066 -> 1067 ;
1068 [label="X[1] <= 1362.5\ngini = 0.48\nsamples = 15\nvalue = [9, 6]"] ;
1067 -> 1068 ;
1069 [label="X[1] <= 1352.5\ngini = 0.5\nsamples = 12\nvalue = [6, 6]"] ;
1068 -> 1069 ;
1070 [label="gini = 0.48\nsamples = 10\nvalue = [6, 4]"] ;
1069 -> 1070 ;
1071 [label="gini = 0.0\nsamples = 2\nvalue = [0, 2]"] ;
1069 -> 1071 ;
1072 [label="gini = 0.0\nsamples = 3\nvalue = [3, 0]"] ;
1068 -> 1072 ;
1073 [label="gini = 0.0\nsamples = 2\nvalue = [0, 2]"] ;
1067 -> 1073 ;
1074 [label="gini = 0.375\nsamples = 4\nvalue = [3, 1]"] ;
1066 -> 1074 ;
1075 [label="gini = 0.0\nsamples = 6\nvalue = [0, 6]"] ;
1055 -> 1075 ;
1076 [label="gini = 0.0\nsamples = 8\nvalue = [8, 0]"] ;
1036 -> 1076 ;
1077 [label="X[1] <= 1493.5\ngini = 0.352\nsamples = 359\nvalue = [82, 277]"] ;
1035 -> 1077 ;
1078 [label="X[1] <= 1438.0\ngini = 0.203\nsamples = 61\nvalue = [7, 54]"] ;
1077 -> 1078 ;
1079 [label="X[1] <= 1410.5\ngini = 0.363\nsamples = 21\nvalue = [5, 16]"] ;
1078 -> 1079 ;
1080 [label="gini = 0.0\nsamples = 9\nvalue = [0, 9]"] ;
1079 -> 1080 ;
1081 [label="X[1] <= 1430.0\ngini = 0.486\nsamples = 12\nvalue = [5, 7]"] ;
1079 -> 1081 ;
1082 [label="X[1] <= 1416.5\ngini = 0.408\nsamples = 7\nvalue = [2, 5]"] ;
1081 -> 1082 ;
1083 [label="gini = 0.444\nsamples = 3\nvalue = [2, 1]"] ;
1082 -> 1083 ;
1084 [label="gini = 0.0\nsamples = 4\nvalue = [0, 4]"] ;
1082 -> 1084 ;
1085 [label="gini = 0.48\nsamples = 5\nvalue = [3, 2]"] ;
1081 -> 1085 ;
1086 [label="X[1] <= 1488.5\ngini = 0.095\nsamples = 40\nvalue = [2, 38]"] ;
1078 -> 1086 ;
1087 [label="gini = 0.0\nsamples = 20\nvalue = [0, 20]"] ;
1086 -> 1087 ;
1088 [label="X[0] <= 17.5\ngini = 0.18\nsamples = 20\nvalue = [2, 18]"] ;
1086 -> 1088 ;
1089 [label="X[1] <= 1490.5\ngini = 0.231\nsamples = 15\nvalue = [2, 13]"] ;
1088 -> 1089 ;
1090 [label="X[0] <= 16.5\ngini = 0.298\nsamples = 11\nvalue = [2, 9]"] ;
1089 -> 1090 ;
1091 [label="gini = 0.32\nsamples = 5\nvalue = [1, 4]"] ;
1090 -> 1091 ;
1092 [label="gini = 0.278\nsamples = 6\nvalue = [1, 5]"] ;
1090 -> 1092 ;
1093 [label="gini = 0.0\nsamples = 4\nvalue = [0, 4]"] ;
1089 -> 1093 ;
1094 [label="gini = 0.0\nsamples = 5\nvalue = [0, 5]"] ;
1088 -> 1094 ;
1095 [label="X[1] <= 1496.5\ngini = 0.377\nsamples = 298\nvalue = [75, 223]"] ;
1077 -> 1095 ;
1096 [label="gini = 0.444\nsamples = 3\nvalue = [2, 1]"] ;
1095 -> 1096 ;
1097 [label="X[1] <= 1914.5\ngini = 0.372\nsamples = 295\nvalue = [73, 222]"] ;
1095 -> 1097 ;
1098 [label="X[1] <= 1900.5\ngini = 0.364\nsamples = 280\nvalue = [67, 213]"] ;
1097 -> 1098 ;
1099 [label="X[1] <= 1898.5\ngini = 0.371\nsamples = 272\nvalue = [67, 205]"] ;
1098 -> 1099 ;
1100 [label="X[1] <= 1831.5\ngini = 0.363\nsamples = 269\nvalue = [64, 205]"] ;
1099 -> 1100 ;
1101 [label="X[0] <= 17.5\ngini = 0.381\nsamples = 230\nvalue = [59, 171]"] ;
1100 -> 1101 ;
1102 [label="X[1] <= 1561.5\ngini = 0.329\nsamples = 111\nvalue = [23, 88]"] ;
1101 -> 1102 ;
1103 [label="X[1] <= 1518.5\ngini = 0.444\nsamples = 18\nvalue = [6, 12]"] ;
1102 -> 1103 ;
1104 [label="gini = 0.0\nsamples = 5\nvalue = [0, 5]"] ;
1103 -> 1104 ;
1105 [label="X[1] <= 1530.5\ngini = 0.497\nsamples = 13\nvalue = [6, 7]"] ;
1103 -> 1105 ;
1106 [label="X[1] <= 1522.5\ngini = 0.444\nsamples = 6\nvalue = [2, 4]"] ;
1105 -> 1106 ;
1107 [label="X[0] <= 16.5\ngini = 0.5\nsamples = 4\nvalue = [2, 2]"] ;
1106 -> 1107 ;
1108 [label="gini = 0.0\nsamples = 1\nvalue = [0, 1]"] ;
1107 -> 1108 ;
1109 [label="gini = 0.444\nsamples = 3\nvalue = [2, 1]"] ;
1107 -> 1109 ;
1110 [label="gini = 0.0\nsamples = 2\nvalue = [0, 2]"] ;
1106 -> 1110 ;
1111 [label="X[1] <= 1541.5\ngini = 0.49\nsamples = 7\nvalue = [4, 3]"] ;
1105 -> 1111 ;
1112 [label="gini = 0.0\nsamples = 2\nvalue = [2, 0]"] ;
1111 -> 1112 ;
1113 [label="X[1] <= 1553.0\ngini = 0.48\nsamples = 5\nvalue = [2, 3]"] ;
1111 -> 1113 ;
1114 [label="gini = 0.0\nsamples = 1\nvalue = [0, 1]"] ;
1113 -> 1114 ;
1115 [label="gini = 0.5\nsamples = 4\nvalue = [2, 2]"] ;
1113 -> 1115 ;
1116 [label="X[1] <= 1793.0\ngini = 0.299\nsamples = 93\nvalue = [17, 76]"] ;
1102 -> 1116 ;
1117 [label="X[1] <= 1733.5\ngini = 0.267\nsamples = 82\nvalue = [13, 69]"] ;
1116 -> 1117 ;
1118 [label="X[1] <= 1725.0\ngini = 0.306\nsamples = 69\nvalue = [13, 56]"] ;
1117 -> 1118 ;
1119 [label="X[1] <= 1705.5\ngini = 0.255\nsamples = 60\nvalue = [9, 51]"] ;
1118 -> 1119 ;
1120 [label="X[1] <= 1695.0\ngini = 0.315\nsamples = 46\nvalue = [9, 37]"] ;
1119 -> 1120 ;
1121 [label="X[0] <= 16.5\ngini = 0.17\nsamples = 32\nvalue = [3, 29]"] ;
1120 -> 1121 ;
1122 [label="X[1] <= 1648.5\ngini = 0.091\nsamples = 21\nvalue = [1, 20]"] ;
1121 -> 1122 ;
1123 [label="gini = 0.0\nsamples = 19\nvalue = [0, 19]"] ;
1122 -> 1123 ;
1124 [label="gini = 0.5\nsamples = 2\nvalue = [1, 1]"] ;
1122 -> 1124 ;
1125 [label="X[1] <= 1608.5\ngini = 0.298\nsamples = 11\nvalue = [2, 9]"] ;
1121 -> 1125 ;
1126 [label="X[1] <= 1591.5\ngini = 0.5\nsamples = 4\nvalue = [2, 2]"] ;
1125 -> 1126 ;
1127 [label="gini = 0.0\nsamples = 1\nvalue = [0, 1]"] ;
1126 -> 1127 ;
1128 [label="gini = 0.444\nsamples = 3\nvalue = [2, 1]"] ;
1126 -> 1128 ;
1129 [label="gini = 0.0\nsamples = 7\nvalue = [0, 7]"] ;
1125 -> 1129 ;
1130 [label="X[1] <= 1701.0\ngini = 0.49\nsamples = 14\nvalue = [6, 8]"] ;
1120 -> 1130 ;
1131 [label="gini = 0.408\nsamples = 7\nvalue = [5, 2]"] ;
1130 -> 1131 ;
1132 [label="X[1] <= 1704.5\ngini = 0.245\nsamples = 7\nvalue = [1, 6]"] ;
1130 -> 1132 ;
1133 [label="gini = 0.0\nsamples = 3\nvalue = [0, 3]"] ;
1132 -> 1133 ;
1134 [label="gini = 0.375\nsamples = 4\nvalue = [1, 3]"] ;
1132 -> 1134 ;
1135 [label="gini = 0.0\nsamples = 14\nvalue = [0, 14]"] ;
1119 -> 1135 ;
1136 [label="X[0] <= 16.5\ngini = 0.494\nsamples = 9\nvalue = [4, 5]"] ;
1118 -> 1136 ;
1137 [label="gini = 0.5\nsamples = 8\nvalue = [4, 4]"] ;
1136 -> 1137 ;
1138 [label="gini = 0.0\nsamples = 1\nvalue = [0, 1]"] ;
1136 -> 1138 ;
1139 [label="gini = 0.0\nsamples = 13\nvalue = [0, 13]"] ;
1117 -> 1139 ;
1140 [label="X[1] <= 1799.5\ngini = 0.463\nsamples = 11\nvalue = [4, 7]"] ;
1116 -> 1140 ;
1141 [label="gini = 0.444\nsamples = 6\nvalue = [4, 2]"] ;
1140 -> 1141 ;
1142 [label="gini = 0.0\nsamples = 5\nvalue = [0, 5]"] ;
1140 -> 1142 ;
1143 [label="X[1] <= 1575.0\ngini = 0.422\nsamples = 119\nvalue = [36, 83]"] ;
1101 -> 1143 ;
1144 [label="X[1] <= 1510.5\ngini = 0.227\nsamples = 23\nvalue = [3, 20]"] ;
1143 -> 1144 ;
1145 [label="X[1] <= 1504.5\ngini = 0.48\nsamples = 5\nvalue = [2, 3]"] ;
1144 -> 1145 ;
1146 [label="gini = 0.0\nsamples = 2\nvalue = [0, 2]"] ;
1145 -> 1146 ;
1147 [label="X[1] <= 1508.0\ngini = 0.444\nsamples = 3\nvalue = [2, 1]"] ;
1145 -> 1147 ;
1148 [label="gini = 0.0\nsamples = 1\nvalue = [1, 0]"] ;
1147 -> 1148 ;
1149 [label="gini = 0.5\nsamples = 2\nvalue = [1, 1]"] ;
1147 -> 1149 ;
1150 [label="X[1] <= 1548.0\ngini = 0.105\nsamples = 18\nvalue = [1, 17]"] ;
1144 -> 1150 ;
1151 [label="gini = 0.0\nsamples = 9\nvalue = [0, 9]"] ;
1150 -> 1151 ;
1152 [label="X[1] <= 1550.5\ngini = 0.198\nsamples = 9\nvalue = [1, 8]"] ;
1150 -> 1152 ;
1153 [label="gini = 0.444\nsamples = 3\nvalue = [1, 2]"] ;
1152 -> 1153 ;
1154 [label="gini = 0.0\nsamples = 6\nvalue = [0, 6]"] ;
1152 -> 1154 ;
1155 [label="X[1] <= 1627.5\ngini = 0.451\nsamples = 96\nvalue = [33, 63]"] ;
1143 -> 1155 ;
1156 [label="X[1] <= 1596.0\ngini = 0.463\nsamples = 11\nvalue = [7, 4]"] ;
1155 -> 1156 ;
1157 [label="X[1] <= 1579.5\ngini = 0.444\nsamples = 3\nvalue = [1, 2]"] ;
1156 -> 1157 ;
1158 [label="gini = 0.0\nsamples = 1\nvalue = [1, 0]"] ;
1157 -> 1158 ;
1159 [label="gini = 0.0\nsamples = 2\nvalue = [0, 2]"] ;
1157 -> 1159 ;
1160 [label="X[1] <= 1602.5\ngini = 0.375\nsamples = 8\nvalue = [6, 2]"] ;
1156 -> 1160 ;
1161 [label="gini = 0.0\nsamples = 4\nvalue = [4, 0]"] ;
1160 -> 1161 ;
1162 [label="X[1] <= 1616.5\ngini = 0.5\nsamples = 4\nvalue = [2, 2]"] ;
1160 -> 1162 ;
1163 [label="gini = 0.0\nsamples = 1\nvalue = [0, 1]"] ;
1162 -> 1163 ;
1164 [label="gini = 0.444\nsamples = 3\nvalue = [2, 1]"] ;
1162 -> 1164 ;
1165 [label="X[1] <= 1651.0\ngini = 0.425\nsamples = 85\nvalue = [26, 59]"] ;
1155 -> 1165 ;
1166 [label="gini = 0.0\nsamples = 7\nvalue = [0, 7]"] ;
1165 -> 1166 ;
1167 [label="X[1] <= 1674.0\ngini = 0.444\nsamples = 78\nvalue = [26, 52]"] ;
1165 -> 1167 ;
1168 [label="X[1] <= 1662.5\ngini = 0.48\nsamples = 15\nvalue = [9, 6]"] ;
1167 -> 1168 ;
1169 [label="X[1] <= 1660.0\ngini = 0.444\nsamples = 9\nvalue = [3, 6]"] ;
1168 -> 1169 ;
1170 [label="gini = 0.469\nsamples = 8\nvalue = [3, 5]"] ;
1169 -> 1170 ;
1171 [label="gini = 0.0\nsamples = 1\nvalue = [0, 1]"] ;
1169 -> 1171 ;
1172 [label="gini = 0.0\nsamples = 6\nvalue = [6, 0]"] ;
1168 -> 1172 ;
1173 [label="X[1] <= 1718.0\ngini = 0.394\nsamples = 63\nvalue = [17, 46]"] ;
1167 -> 1173 ;
1174 [label="X[1] <= 1698.0\ngini = 0.142\nsamples = 13\nvalue = [1, 12]"] ;
1173 -> 1174 ;
1175 [label="gini = 0.0\nsamples = 7\nvalue = [0, 7]"] ;
1174 -> 1175 ;
1176 [label="X[1] <= 1711.5\ngini = 0.278\nsamples = 6\nvalue = [1, 5]"] ;
1174 -> 1176 ;
1177 [label="gini = 0.0\nsamples = 1\nvalue = [1, 0]"] ;
1176 -> 1177 ;
1178 [label="gini = 0.0\nsamples = 5\nvalue = [0, 5]"] ;
1176 -> 1178 ;
1179 [label="X[1] <= 1726.0\ngini = 0.435\nsamples = 50\nvalue = [16, 34]"] ;
1173 -> 1179 ;
1180 [label="gini = 0.48\nsamples = 5\nvalue = [3, 2]"] ;
1179 -> 1180 ;
1181 [label="X[1] <= 1769.5\ngini = 0.411\nsamples = 45\nvalue = [13, 32]"] ;
1179 -> 1181 ;
1182 [label="X[1] <= 1733.5\ngini = 0.165\nsamples = 11\nvalue = [1, 10]"] ;
1181 -> 1182 ;
1183 [label="gini = 0.375\nsamples = 4\nvalue = [1, 3]"] ;
1182 -> 1183 ;
1184 [label="gini = 0.0\nsamples = 7\nvalue = [0, 7]"] ;
1182 -> 1184 ;
1185 [label="X[1] <= 1773.5\ngini = 0.457\nsamples = 34\nvalue = [12, 22]"] ;
1181 -> 1185 ;
1186 [label="gini = 0.408\nsamples = 7\nvalue = [5, 2]"] ;
1185 -> 1186 ;
1187 [label="X[1] <= 1827.0\ngini = 0.384\nsamples = 27\nvalue = [7, 20]"] ;
1185 -> 1187 ;
1188 [label="X[1] <= 1791.0\ngini = 0.219\nsamples = 16\nvalue = [2, 14]"] ;
1187 -> 1188 ;
1189 [label="X[1] <= 1789.5\ngini = 0.408\nsamples = 7\nvalue = [2, 5]"] ;
1188 -> 1189 ;
1190 [label="gini = 0.0\nsamples = 5\nvalue = [0, 5]"] ;
1189 -> 1190 ;
1191 [label="gini = 0.0\nsamples = 2\nvalue = [2, 0]"] ;
1189 -> 1191 ;
1192 [label="gini = 0.0\nsamples = 9\nvalue = [0, 9]"] ;
1188 -> 1192 ;
1193 [label="gini = 0.496\nsamples = 11\nvalue = [5, 6]"] ;
1187 -> 1193 ;
1194 [label="X[1] <= 1875.5\ngini = 0.224\nsamples = 39\nvalue = [5, 34]"] ;
1100 -> 1194 ;
1195 [label="gini = 0.0\nsamples = 20\nvalue = [0, 20]"] ;
1194 -> 1195 ;
1196 [label="X[1] <= 1881.0\ngini = 0.388\nsamples = 19\nvalue = [5, 14]"] ;
1194 -> 1196 ;
1197 [label="X[0] <= 17.0\ngini = 0.496\nsamples = 11\nvalue = [5, 6]"] ;
1196 -> 1197 ;
1198 [label="gini = 0.0\nsamples = 1\nvalue = [0, 1]"] ;
1197 -> 1198 ;
1199 [label="gini = 0.5\nsamples = 10\nvalue = [5, 5]"] ;
1197 -> 1199 ;
1200 [label="gini = 0.0\nsamples = 8\nvalue = [0, 8]"] ;
1196 -> 1200 ;
1201 [label="gini = 0.0\nsamples = 3\nvalue = [3, 0]"] ;
1099 -> 1201 ;
1202 [label="gini = 0.0\nsamples = 8\nvalue = [0, 8]"] ;
1098 -> 1202 ;
1203 [label="X[1] <= 1916.0\ngini = 0.48\nsamples = 15\nvalue = [6, 9]"] ;
1097 -> 1203 ;
1204 [label="gini = 0.32\nsamples = 5\nvalue = [4, 1]"] ;
1203 -> 1204 ;
1205 [label="X[0] <= 16.5\ngini = 0.32\nsamples = 10\nvalue = [2, 8]"] ;
1203 -> 1205 ;
1206 [label="gini = 0.0\nsamples = 2\nvalue = [2, 0]"] ;
1205 -> 1206 ;
1207 [label="gini = 0.0\nsamples = 8\nvalue = [0, 8]"] ;
1205 -> 1207 ;
1208 [label="X[1] <= 1956.0\ngini = 0.122\nsamples = 92\nvalue = [6, 86]"] ;
978 -> 1208 ;
1209 [label="X[1] <= 1952.0\ngini = 0.224\nsamples = 39\nvalue = [5, 34]"] ;
1208 -> 1209 ;
1210 [label="gini = 0.0\nsamples = 15\nvalue = [0, 15]"] ;
1209 -> 1210 ;
1211 [label="X[0] <= 17.0\ngini = 0.33\nsamples = 24\nvalue = [5, 19]"] ;
1209 -> 1211 ;
1212 [label="gini = 0.34\nsamples = 23\nvalue = [5, 18]"] ;
1211 -> 1212 ;
1213 [label="gini = 0.0\nsamples = 1\nvalue = [0, 1]"] ;
1211 -> 1213 ;
1214 [label="X[1] <= 1977.0\ngini = 0.037\nsamples = 53\nvalue = [1, 52]"] ;
1208 -> 1214 ;
1215 [label="X[1] <= 1974.0\ngini = 0.095\nsamples = 20\nvalue = [1, 19]"] ;
1214 -> 1215 ;
1216 [label="gini = 0.0\nsamples = 17\nvalue = [0, 17]"] ;
1215 -> 1216 ;
1217 [label="gini = 0.444\nsamples = 3\nvalue = [1, 2]"] ;
1215 -> 1217 ;
1218 [label="gini = 0.0\nsamples = 33\nvalue = [0, 33]"] ;
1214 -> 1218 ;
1219 [label="X[1] <= 2085.0\ngini = 0.375\nsamples = 1612\nvalue = [403, 1209]"] ;
743 -> 1219 ;
1220 [label="X[1] <= 2079.5\ngini = 0.473\nsamples = 47\nvalue = [29, 18]"] ;
1219 -> 1220 ;
1221 [label="X[1] <= 2051.5\ngini = 0.491\nsamples = 30\nvalue = [13, 17]"] ;
1220 -> 1221 ;
1222 [label="X[0] <= 17.0\ngini = 0.245\nsamples = 7\nvalue = [6, 1]"] ;
1221 -> 1222 ;
1223 [label="gini = 0.0\nsamples = 4\nvalue = [4, 0]"] ;
1222 -> 1223 ;
1224 [label="gini = 0.444\nsamples = 3\nvalue = [2, 1]"] ;
1222 -> 1224 ;
1225 [label="X[1] <= 2058.5\ngini = 0.423\nsamples = 23\nvalue = [7, 16]"] ;
1221 -> 1225 ;
1226 [label="gini = 0.0\nsamples = 6\nvalue = [0, 6]"] ;
1225 -> 1226 ;
1227 [label="X[1] <= 2062.0\ngini = 0.484\nsamples = 17\nvalue = [7, 10]"] ;
1225 -> 1227 ;
1228 [label="gini = 0.0\nsamples = 2\nvalue = [2, 0]"] ;
1227 -> 1228 ;
1229 [label="X[1] <= 2068.5\ngini = 0.444\nsamples = 15\nvalue = [5, 10]"] ;
1227 -> 1229 ;
1230 [label="gini = 0.0\nsamples = 2\nvalue = [0, 2]"] ;
1229 -> 1230 ;
1231 [label="X[0] <= 16.5\ngini = 0.473\nsamples = 13\nvalue = [5, 8]"] ;
1229 -> 1231 ;
1232 [label="gini = 0.0\nsamples = 1\nvalue = [1, 0]"] ;
1231 -> 1232 ;
1233 [label="X[1] <= 2077.5\ngini = 0.444\nsamples = 12\nvalue = [4, 8]"] ;
1231 -> 1233 ;
1234 [label="X[0] <= 17.5\ngini = 0.463\nsamples = 11\nvalue = [4, 7]"] ;
1233 -> 1234 ;
1235 [label="gini = 0.408\nsamples = 7\nvalue = [2, 5]"] ;
1234 -> 1235 ;
1236 [label="gini = 0.5\nsamples = 4\nvalue = [2, 2]"] ;
1234 -> 1236 ;
1237 [label="gini = 0.0\nsamples = 1\nvalue = [0, 1]"] ;
1233 -> 1237 ;
1238 [label="X[1] <= 2080.5\ngini = 0.111\nsamples = 17\nvalue = [16, 1]"] ;
1220 -> 1238 ;
1239 [label="X[0] <= 17.5\ngini = 0.153\nsamples = 12\nvalue = [11, 1]"] ;
1238 -> 1239 ;
1240 [label="gini = 0.0\nsamples = 4\nvalue = [4, 0]"] ;
1239 -> 1240 ;
1241 [label="gini = 0.219\nsamples = 8\nvalue = [7, 1]"] ;
1239 -> 1241 ;
1242 [label="gini = 0.0\nsamples = 5\nvalue = [5, 0]"] ;
1238 -> 1242 ;
1243 [label="X[0] <= 17.5\ngini = 0.364\nsamples = 1565\nvalue = [374, 1191]"] ;
1219 -> 1243 ;
1244 [label="X[1] <= 4055.5\ngini = 0.33\nsamples = 747\nvalue = [156, 591]"] ;
1243 -> 1244 ;
1245 [label="X[0] <= 16.5\ngini = 0.305\nsamples = 670\nvalue = [126, 544]"] ;
1244 -> 1245 ;
1246 [label="X[1] <= 3971.0\ngini = 0.342\nsamples = 420\nvalue = [92, 328]"] ;
1245 -> 1246 ;
1247 [label="X[1] <= 2664.5\ngini = 0.356\nsamples = 397\nvalue = [92, 305]"] ;
1246 -> 1247 ;
1248 [label="X[1] <= 2305.0\ngini = 0.24\nsamples = 115\nvalue = [16, 99]"] ;
1247 -> 1248 ;
1249 [label="X[1] <= 2141.0\ngini = 0.411\nsamples = 45\nvalue = [13, 32]"] ;
1248 -> 1249 ;
1250 [label="gini = 0.0\nsamples = 9\nvalue = [0, 9]"] ;
1249 -> 1250 ;
